{"learner":{"attributes":{},"feature_names":["Age","Sex","Job","Housing","Saving accounts","Checking account","Credit amount","Duration"],"feature_types":["int","int","int","int","int","int","int","int"],"gradient_booster":{"model":{"gbtree_model_param":{"num_parallel_tree":"1","num_trees":"100"},"iteration_indptr":[0,1,2,3,4,5,6,7,8,9,10,11,12,13,14,15,16,17,18,19,20,21,22,23,24,25,26,27,28,29,30,31,32,33,34,35,36,37,38,39,40,41,42,43,44,45,46,47,48,49,50,51,52,53,54,55,56,57,58,59,60,61,62,63,64,65,66,67,68,69,70,71,72,73,74,75,76,77,78,79,80,81,82,83,84,85,86,87,88,89,90,91,92,93,94,95,96,97,98,99,100],"tree_info":[0,0,0,0,0,0,0,0,0,0,0,0,0,0,0,0,0,0,0,0,0,0,0,0,0,0,0,0,0,0,0,0,0,0,0,0,0,0,0,0,0,0,0,0,0,0,0,0,0,0,0,0,0,0,0,0,0,0,0,0,0,0,0,0,0,0,0,0,0,0,0,0,0,0,0,0,0,0,0,0,0,0,0,0,0,0,0,0,0,0,0,0,0,0,0,0,0,0,0,0],"trees":[{"base_weights":[-1.08116426E-1,8.051502E-1,-3.0124906E-1,2.8959366E-2,7.5585167E-3,-4.435892E-1,7.5585167E-3,-2.3743547E-1,-2.877551E-2,-9.5819324E-2,-1.7949287E-2,-2.8745797E-3,-1.7949287E-2],"categories":[],"categories_nodes":[],"categories_segments":[],"categories_sizes":[],"default_left":[0,0,0,0,0,0,0,0,0,0,0,0,0],"id":0,"left_children":[1,3,5,-1,-1,7,-1,9,-1,11,-1,-1,-1],"loss_changes":[1.011536E1,1.2894516E0,6.1638803E0,0E0,0E0,4.296067E0,0E0,2.5298371E0,0E0,1.6137019E0,0E0,0E0,0E0],"parents":[2147483647,0,0,1,1,2,2,5,5,7,7,9,9],"right_children":[2,4,6,-1,-1,8,-1,10,-1,12,-1,-1,-1],"split_conditions":[1.2E1,3E0,2E0,2.8959366E-2,7.5585167E-3,3.3E1,7.5585167E-3,2E0,-2.877551E-2,6.758E3,-1.7949287E-2,-2.8745797E-3,-1.7949287E-2],"split_indices":[7,2,5,0,0,7,0,3,0,6,0,0,0],"split_type":[0,0,0,0,0,0,0,0,0,0,0,0,0],"sum_hessian":[5.4974136E1,9.043103E0,4.5931034E1,7.698276E0,1.3448277E0,4.1560345E1,4.37069E0,3.073276E1,1.0827586E1,2.2853449E1,7.8793106E0,2.0706896E1,2.1465516E0],"tree_param":{"num_deleted":"0","num_feature":"8","num_nodes":"13","size_leaf_vector":"1"}},{"base_weights":[1.2476705E-2,1.5705433E-1,-1.0055577E0,2.3075387E-2,1.0465896E0,-3.945662E-2,-6.1389935E-1,-4.2425168E-1,2.7093503E-1,5.348325E-1,4.1936923E-2,-1.272755E-2,-2.853634E-2,-4.2425168E-1,1.6044974E-2,5.348325E-1,1.2228047E-1,2.8990949E-2,1.6044974E-2,-4.663853E-3,-1.272755E-2,1.6044974E-2,-9.68474E-3,-3.352034E-3,1.330038E-2],"categories":[],"categories_nodes":[],"categories_segments":[],"categories_sizes":[],"default_left":[0,0,0,0,0,0,0,0,0,0,0,0,0,0,0,0,0,0,0,0,0,0,0,0,0],"id":1,"left_children":[1,3,5,7,9,-1,11,13,15,17,-1,-1,-1,19,-1,21,23,-1,-1,-1,-1,-1,-1,-1,-1],"loss_changes":[8.210527E0,5.788453E0,3.412676E-2,5.0810056E0,5.648823E-1,0E0,3.9156973E-1,2.426957E0,1.4995484E0,3.3393753E-1,0E0,0E0,0E0,2.1791458E-2,0E0,1.2927957E0,1.7250274E0,0E0,0E0,0E0,0E0,0E0,0E0,0E0,0E0],"parents":[2147483647,0,0,1,1,2,2,3,3,4,4,6,6,7,7,8,8,9,9,13,13,15,15,16,16],"right_children":[2,4,6,8,10,-1,12,14,16,18,-1,-1,-1,20,-1,22,24,-1,-1,-1,-1,-1,-1,-1,-1],"split_conditions":[7.763E3,2E0,3E1,1E0,3.5E1,-3.945662E-2,1.1816E4,5.4E1,2E0,1E0,4.1936923E-2,-1.272755E-2,-2.853634E-2,1.126E3,1.6044974E-2,2E0,1E0,2.8990949E-2,1.6044974E-2,-4.663853E-3,-1.272755E-2,1.6044974E-2,-9.68474E-3,-3.352034E-3,1.330038E-2],"split_indices":[6,5,0,1,0,0,6,0,2,1,0,0,0,6,0,3,5,0,0,0,0,0,0,0,0],"split_type":[0,0,0,0,0,0,0,0,0,0,0,0,0,0,0,0,0,0,0,0,0,0,0,0,0],"sum_hessian":[5.3710735E1,4.777205E1,5.9386888E0,4.241029E1,5.36176E0,1.9996176E0,3.939071E0,1.4550564E1,2.7859724E1,2.9826386E0,2.3791215E0,2.241067E0,1.6980041E0,1.3309243E1,1.2413199E0,6.5597315E0,2.1299994E1,1.1895608E0,1.7930778E0,1.792898E0,1.1516346E1,5.4133296E0,1.1464021E0,1.2697302E1,8.602691E0],"tree_param":{"num_deleted":"0","num_feature":"8","num_nodes":"25","size_leaf_vector":"1"}},{"base_weights":[-1.4901746E-2,2.68742E-1,-8.149707E-1,-1.14943564E-1,6.5306574E-1,-4.9671668E-1,-3.6474753E-2,8.071832E-3,-2.7311432E-1,3.98817E-1,3.8112033E-2,-8.4014744E-1,-2.7311432E-1,-8.19343E-3,-6.0798524E-5,2.690611E-1,6.9768614E-1,-2.5688127E-2,-1.6698925E-2,-1.4619787E-2,-8.19343E-3,8.071832E-3,1.5191581E-2,2.503827E-2,8.071832E-3],"categories":[],"categories_nodes":[],"categories_segments":[],"categories_sizes":[],"default_left":[0,0,0,0,0,0,0,0,0,0,0,0,0,0,0,0,0,0,0,0,0,0,0,0,0],"id":2,"left_children":[1,3,5,7,9,11,-1,-1,13,15,-1,17,19,-1,-1,21,23,-1,-1,-1,-1,-1,-1,-1,-1],"loss_changes":[1.2803189E1,6.222801E0,1.2793007E0,4.9528646E0,2.7859583E0,8.896742E-1,0E0,0E0,1.3654583E0,1.5072336E0,0E0,6.733656E-2,3.5362184E-2,0E0,0E0,4.2642295E-2,1.2438707E0,0E0,0E0,0E0,0E0,0E0,0E0,0E0,0E0],"parents":[2147483647,0,0,1,1,2,2,3,3,4,4,5,5,8,8,9,9,11,11,12,12,15,15,16,16],"right_children":[2,4,6,8,10,12,-1,-1,14,16,-1,18,20,-1,-1,22,24,-1,-1,-1,-1,-1,-1,-1,-1],"split_conditions":[2.7E1,1E0,4.5E1,1.2E1,4E1,3E1,-3.6474753E-2,8.071832E-3,3E0,1E0,3.8112033E-2,1E0,1E0,-8.19343E-3,-6.0798524E-5,2E0,3E0,-2.5688127E-2,-1.6698925E-2,-1.4619787E-2,-8.19343E-3,8.071832E-3,1.5191581E-2,2.503827E-2,8.071832E-3],"split_indices":[7,5,7,7,0,0,0,0,2,1,0,5,3,0,0,5,2,0,0,0,0,0,0,0,0],"split_type":[0,0,0,0,0,0,0,0,0,0,0,0,0,0,0,0,0,0,0,0,0,0,0,0,0],"sum_hessian":[5.4452873E1,4.0691025E1,1.3761849E1,2.071317E1,1.9977856E1,8.919475E0,4.8423743E0,4.119601E0,1.6593569E1,1.5316009E1,4.6618466E0,3.5415225E0,5.377952E0,1.4955761E1,1.6378074E0,6.2227182E0,9.09329E0,2.196795E0,1.3447276E0,1.3961948E0,3.9817574E0,5.1802897E0,1.0424285E0,7.9469876E0,1.1463032E0],"tree_param":{"num_deleted":"0","num_feature":"8","num_nodes":"25","size_leaf_vector":"1"}},{"base_weights":[8.666521E-2,9.900946E-1,-1.2901074E-1,1.2916258E-2,4.869635E-2,3.0378658E-2,-3.4378994E-2,-1.5020615E-1,4.3054193E-1,-3.3780172E-2,-1.6733818E-2,1.2916258E-2,4.2050364E-3,-8.873611E-3,3.0828612E-3],"categories":[],"categories_nodes":[],"categories_segments":[],"categories_sizes":[],"default_left":[0,0,0,0,0,0,0,0,0,0,0,0,0,0,0],"id":3,"left_children":[1,3,5,-1,-1,7,-1,9,11,13,-1,-1,-1,-1,-1],"loss_changes":[1.1508536E1,4.722026E0,7.821182E0,0E0,0E0,4.562074E0,0E0,2.4868817E0,6.1632156E-1,1.5454798E0,0E0,0E0,0E0,0E0,0E0],"parents":[2147483647,0,0,1,1,2,2,5,5,7,7,8,8,9,9],"right_children":[2,4,6,-1,-1,8,-1,10,12,14,-1,-1,-1,-1,-1],"split_conditions":[1.2E1,3.5E1,4.5E1,1.2916258E-2,4.869635E-2,1E0,-3.4378994E-2,7.408E3,3.804E3,2E0,-1.6733818E-2,1.2916258E-2,4.2050364E-3,-8.873611E-3,3.0828612E-3],"split_indices":[7,0,7,0,0,4,0,6,6,2,0,0,0,0,0],"split_type":[0,0,0,0,0,0,0,0,0,0,0,0,0,0,0],"sum_hessian":[5.740863E1,1.0371894E1,4.7036736E1,5.4188867E0,4.953007E0,4.150215E1,5.5345826E0,3.3255627E1,8.246526E0,2.9914509E1,3.3411195E0,6.006076E0,2.2404494E0,7.2734604E0,2.2641048E1],"tree_param":{"num_deleted":"0","num_feature":"8","num_nodes":"15","size_leaf_vector":"1"}},{"base_weights":[2.8574366E-2,2.9637954E-1,-8.3906746E-1,9.41322E-1,9.679867E-2,-4.629596E-1,-3.8270276E-2,1.5571811E-2,4.0133044E-2,-1.2067914E-1,5.190604E-1,-8.0920583E-1,-2.7134395E-1,-2.7134395E-1,1.9919062E-1,5.975718E-3,1.5571811E-2,-2.6079532E-2,-1.6208244E-2,-8.140318E-3,-1.4249218E-2,-8.140318E-3,-1.0823E-3,-1.0823E-3,5.975718E-3],"categories":[],"categories_nodes":[],"categories_segments":[],"categories_sizes":[],"default_left":[0,0,0,0,0,0,0,0,0,0,0,0,0,0,0,0,0,0,0,0,0,0,0,0,0],"id":4,"left_children":[1,3,5,7,9,11,-1,-1,-1,13,15,17,19,21,23,-1,-1,-1,-1,-1,-1,-1,-1,-1,-1],"loss_changes":[1.31926365E1,5.483249E0,1.6098423E0,2.50988E0,4.802127E0,9.1725683E-1,0E0,0E0,0E0,2.525271E0,4.0552568E-1,9.3003535E-1,2.5701761E-2,1.3956356E0,4.2025876E-1,0E0,0E0,0E0,0E0,0E0,0E0,0E0,0E0,0E0,0E0],"parents":[2147483647,0,0,1,1,2,2,3,3,4,4,5,5,9,9,10,10,11,11,12,12,13,13,14,14],"right_children":[2,4,6,8,10,12,-1,-1,-1,14,16,18,20,22,24,-1,-1,-1,-1,-1,-1,-1,-1,-1,-1],"split_conditions":[3.3E1,1.2E1,4.8E1,2.9E1,1E0,1E0,-3.8270276E-2,1.5571811E-2,4.0133044E-2,1E0,2.9E1,3.5E1,3E0,3E0,2E0,5.975718E-3,1.5571811E-2,-2.6079532E-2,-1.6208244E-2,-8.140318E-3,-1.4249218E-2,-8.140318E-3,-1.0823E-3,-1.0823E-3,5.975718E-3],"split_indices":[7,7,7,0,4,5,0,0,0,5,0,0,2,2,2,0,0,0,0,0,0,0,0,0,0],"split_type":[0,0,0,0,0,0,0,0,0,0,0,0,0,0,0,0,0,0,0,0,0,0,0,0,0],"sum_hessian":[5.4706707E1,4.2306767E1,1.2399942E1,9.119795E0,3.318697E1,7.7683783E0,4.631564E0,3.281315E0,5.83848E0,2.6286015E1,6.900955E0,3.538022E0,4.230356E0,1.5195432E1,1.1090584E1,2.6371021E0,4.263853E0,2.496077E0,1.0419447E0,2.834867E0,1.3954891E0,1.2911522E1,2.28391E0,2.68871E0,8.401874E0],"tree_param":{"num_deleted":"0","num_feature":"8","num_nodes":"25","size_leaf_vector":"1"}},{"base_weights":[1.7131707E-2,6.728874E-1,-3.9446762E-1,1.0268953E0,3.3372542E-1,-6.5364707E-1,1.3920988E-1,1.33662E0,2.040931E-2,2.1816158E-1,2.040931E-2,-5.0505763E-1,-3.877758E-2,4.1762963E-3,-7.716558E-3,2.040931E-2,4.5295347E-2,4.4923598E-1,1.3920988E-1,-3.1250632E-1,-8.9882183E-1,4.1762963E-3,1.3477079E-2,8.810733E-3,4.1762963E-3,-1.981212E-2,-7.716558E-3,-7.716558E-3,-2.6964655E-2],"categories":[],"categories_nodes":[],"categories_segments":[],"categories_sizes":[],"default_left":[0,0,0,0,0,0,0,0,0,0,0,0,0,0,0,0,0,0,0,0,0,0,0,0,0,0,0,0,0],"id":5,"left_children":[1,3,5,7,9,11,13,15,-1,17,-1,19,-1,-1,-1,-1,-1,21,23,25,27,-1,-1,-1,-1,-1,-1,-1,-1],"loss_changes":[1.5359877E1,2.2909956E0,7.7346935E0,2.1208258E0,4.15604E-1,2.023285E0,1.0714986E0,1.0643234E0,0E0,4.7484046E-1,0E0,2.1710343E0,0E0,0E0,0E0,0E0,0E0,4.066112E-1,5.0767362E-2,9.026817E-1,8.0502653E-1,0E0,0E0,0E0,0E0,0E0,0E0,0E0,0E0],"parents":[2147483647,0,0,1,1,2,2,3,3,4,4,5,5,6,6,7,7,9,9,11,11,17,17,18,18,19,19,20,20],"right_children":[2,4,6,8,10,12,14,16,-1,18,-1,20,-1,-1,-1,-1,-1,22,24,26,28,-1,-1,-1,-1,-1,-1,-1,-1],"split_conditions":[1.6E1,1.2E1,1E0,3E0,2E0,4.5E1,3.3E1,2.4E1,2.040931E-2,1E0,2.040931E-2,2E0,-3.877758E-2,4.1762963E-3,-7.716558E-3,2.040931E-2,4.5295347E-2,2.7E1,2E0,2.7E1,2.1E1,4.1762963E-3,1.3477079E-2,8.810733E-3,4.1762963E-3,-1.981212E-2,-7.716558E-3,-7.716558E-3,-2.6964655E-2],"split_indices":[7,7,4,2,4,7,7,0,0,1,0,3,0,0,0,0,0,0,2,0,7,0,0,0,0,0,0,0,0],"split_type":[0,0,0,0,0,0,0,0,0,0,0,0,0,0,0,0,0,0,0,0,0,0,0,0,0,0,0,0,0],"sum_hessian":[5.4924286E1,2.0935408E1,3.398888E1,9.251355E0,1.1684052E1,2.7187544E1,6.801336E0,7.856922E0,1.3944325E0,1.0246521E1,1.437532E0,2.3510489E1,3.677055E0,5.1603737E0,1.6409622E0,1.0935411E0,6.763381E0,3.6276896E0,6.618831E0,1.872061E1,4.7898793E0,1.3443503E0,2.283339E0,1.9393816E0,4.6794496E0,5.3307905E0,1.3389819E1,1.7924864E0,2.9973931E0],"tree_param":{"num_deleted":"0","num_feature":"8","num_nodes":"29","size_leaf_vector":"1"}},{"base_weights":[-3.617765E-2,2.3060617E-1,-7.120036E-1,7.385817E-1,5.4652438E-2,-8.693118E-1,-7.220961E-3,1.1898512E-2,3.9762124E-2,-2.4069871E-1,3.9505348E-1,-3.3981755E-2,-5.8408266E-1,-2.4069871E-1,2.3153215E-3,7.717738E-2,3.9661708E-1,-1.6650157E-2,-2.5752118E-2,-7.220961E-3,2.3153215E-3,2.3153215E-3,1.1898512E-2,1.1898512E-2,3.3936715E-3],"categories":[],"categories_nodes":[],"categories_segments":[],"categories_sizes":[],"default_left":[0,0,0,0,0,0,0,0,0,0,0,0,0,0,0,0,0,0,0,0,0,0,0,0,0],"id":6,"left_children":[1,3,5,7,9,11,-1,-1,-1,13,15,-1,17,19,-1,21,23,-1,-1,-1,-1,-1,-1,-1,-1],"loss_changes":[1.0391172E1,3.662089E0,2.2716608E0,3.412609E0,3.3134887E0,4.69697E-1,0E0,0E0,0E0,1.8020371E0,4.7712564E-1,0E0,4.226203E-1,1.2471821E0,0E0,3.9174917E-1,9.8941326E-2,0E0,0E0,0E0,0E0,0E0,0E0,0E0,0E0],"parents":[2147483647,0,0,1,1,2,2,3,3,4,4,5,5,9,9,10,10,12,12,13,13,15,15,16,16],"right_children":[2,4,6,8,10,12,-1,-1,-1,14,16,-1,18,20,-1,22,24,-1,-1,-1,-1,-1,-1,-1,-1],"split_conditions":[3E1,1.2E1,2E0,3.6E1,1E0,3E1,-7.220961E-3,1.1898512E-2,3.9762124E-2,3E0,2E0,-3.3981755E-2,4.8E1,1E0,2.3153215E-3,3.5E1,3E0,-1.6650157E-2,-2.5752118E-2,-7.220961E-3,2.3153215E-3,2.3153215E-3,1.1898512E-2,1.1898512E-2,3.3936715E-3],"split_indices":[7,7,5,0,5,0,0,0,0,2,2,0,7,4,0,0,2,0,0,0,0,0,0,0,0],"split_type":[0,0,0,0,0,0,0,0,0,0,0,0,0,0,0,0,0,0,0,0,0,0,0,0,0],"sum_hessian":[5.5722202E1,4.0423653E1,1.529855E1,9.577108E0,3.0846544E1,1.4057313E1,1.2412363E0,5.004948E0,4.5721602E0,1.663189E1,1.4214655E1,5.763424E0,8.293889E0,1.47961855E1,1.835704E0,4.177907E0,1.0036748E1,5.1740355E0,3.1198537E0,1.335668E1,1.4395063E0,2.490945E0,1.6869619E0,7.848382E0,2.1883664E0],"tree_param":{"num_deleted":"0","num_feature":"8","num_nodes":"25","size_leaf_vector":"1"}},{"base_weights":[3.559566E-2,1.9236085E-1,-1.1346874E0,3.5311863E-1,-4.7116327E-1,-3.799141E-2,-1.4134898E-2,1.1750783E-1,7.5648123E-1,-4.7116327E-1,-2.1282555E-1,-5.9022322E-2,4.0656683E-1,4.4227317E-2,4.3699452E-1,-1.4134898E-2,-1.0259832E-2,-8.320454E-3,-3.1303E-3,-1.7706696E-3,5.213167E-3,5.213167E-3,1.3109836E-2,1.3109836E-2,2.8668575E-2],"categories":[],"categories_nodes":[],"categories_segments":[],"categories_sizes":[],"default_left":[0,0,0,0,0,0,0,0,0,0,0,0,0,0,0,0,0,0,0,0,0,0,0,0,0],"id":7,"left_children":[1,3,5,7,9,-1,-1,11,13,15,17,19,21,-1,23,-1,-1,-1,-1,-1,-1,-1,-1,-1,-1],"loss_changes":[1.0487647E1,6.460019E0,3.5491085E-1,3.9383154E0,7.023549E-2,0E0,0E0,2.365969E0,4.1542273E0,2.103405E-1,1.709953E-3,1.1549021E0,4.619925E-1,0E0,1.294332E0,0E0,0E0,0E0,0E0,0E0,0E0,0E0,0E0,0E0,0E0],"parents":[2147483647,0,0,1,1,2,2,3,3,4,4,7,7,8,8,9,9,10,10,11,11,12,12,14,14],"right_children":[2,4,6,8,10,-1,-1,12,14,16,18,20,22,-1,24,-1,-1,-1,-1,-1,-1,-1,-1,-1,-1],"split_conditions":[7.763E3,3.3E1,1E0,3.6E1,1E0,-3.799141E-2,-1.4134898E-2,1E0,1.2E1,3.5E1,2.7E1,1E0,1E0,4.4227317E-2,2E0,-1.4134898E-2,-1.0259832E-2,-8.320454E-3,-3.1303E-3,-1.7706696E-3,5.213167E-3,5.213167E-3,1.3109836E-2,1.3109836E-2,2.8668575E-2],"split_indices":[6,7,4,0,5,0,0,5,7,0,0,4,1,0,5,0,0,0,0,0,0,0,0,0,0],"split_type":[0,0,0,0,0,0,0,0,0,0,0,0,0,0,0,0,0,0,0,0,0,0,0,0,0],"sum_hessian":[5.4976215E1,4.921875E1,5.7574654E0,4.1375347E1,7.843401E0,4.616929E0,1.1405363E0,2.6934044E1,1.4441303E1,4.4646597E0,3.378741E0,1.2987743E1,1.3946301E1,4.5036592E0,9.937644E0,3.1775432E0,1.2871166E0,1.1425507E0,2.2361903E0,1.1151978E1,1.8357656E0,5.4655967E0,8.480705E0,8.159381E0,1.7782632E0],"tree_param":{"num_deleted":"0","num_feature":"8","num_nodes":"25","size_leaf_vector":"1"}},{"base_weights":[-4.2330883E-3,-1.1956004E-1,8.813256E-1,-5.8225554E-1,3.2515798E-2,1.4885969E-2,3.6315788E-2,-9.8539877E-1,-8.246096E-3,-9.27519E-2,3.8088277E-1,-3.9180927E-2,-1.890403E-2,1.4406544E-1,-1.8136346E-1,4.321963E-3,1.1426483E-2,4.321963E-3,-8.246096E-3,-8.099131E-3,4.321963E-3],"categories":[],"categories_nodes":[],"categories_segments":[],"categories_sizes":[],"default_left":[0,0,0,0,0,0,0,0,0,0,0,0,0,0,0,0,0,0,0,0,0],"id":8,"left_children":[1,3,5,7,9,-1,-1,11,-1,13,15,-1,-1,17,19,-1,-1,-1,-1,-1,-1],"loss_changes":[6.008089E0,3.6791492E0,2.5881767E-1,2.3197627E0,2.2195992E0,0E0,0E0,7.252073E-1,0E0,8.987415E-1,6.573502E-1,0E0,0E0,4.3238395E-1,1.1152046E0,0E0,0E0,0E0,0E0,0E0,0E0],"parents":[2147483647,0,0,1,1,2,2,3,3,4,4,7,7,9,9,10,10,13,13,14,14],"right_children":[2,4,6,8,10,-1,-1,12,-1,14,16,-1,-1,18,20,-1,-1,-1,-1,-1,-1],"split_conditions":[2E0,2.6E1,3.5E1,1E0,1E0,1.4885969E-2,3.6315788E-2,1E0,-8.246096E-3,2E0,3E1,-3.9180927E-2,-1.890403E-2,2E0,2E0,4.321963E-3,1.1426483E-2,4.321963E-3,-8.246096E-3,-8.099131E-3,4.321963E-3],"split_indices":[5,0,0,5,4,0,0,1,0,2,0,0,0,3,3,0,0,0,0,0,0],"split_type":[0,0,0,0,0,0,0,0,0,0,0,0,0,0,0,0,0,0,0,0,0],"sum_hessian":[5.679681E1,5.1017723E1,5.7790856E0,1.1920503E1,3.909722E1,3.8188074E0,1.9602784E0,6.1627483E0,5.7577543E0,3.123313E1,7.864091E0,3.4355216E0,2.727227E0,6.481413E0,2.4751717E1,2.0356805E0,5.8284106E0,5.3396325E0,1.1417804E0,2.1535461E1,3.2162552E0],"tree_param":{"num_deleted":"0","num_feature":"8","num_nodes":"21","size_leaf_vector":"1"}},{"base_weights":[-1.0253488E-1,3.603831E-1,-4.300075E-1,4.8769328E-1,-1.0443659E-3,-6.858602E-1,-3.4812197E-2,7.6386356E-1,2.0783618E-1,-9.230061E-1,-3.603362E-1,-1.0443659E-3,-1.0802849E-2,1.4575495E-2,3.539396E-2,4.2486556E-2,1.4575495E-2,-3.5232764E-2,-1.9250136E-2,-1.08100865E-2,-1.9250136E-2,6.873942E-3,-1.0443659E-3],"categories":[],"categories_nodes":[],"categories_segments":[],"categories_sizes":[],"default_left":[0,0,0,0,0,0,0,0,0,0,0,0,0,0,0,0,0,0,0,0,0,0,0],"id":9,"left_children":[1,3,5,7,-1,9,11,13,15,17,19,-1,-1,-1,-1,21,-1,-1,-1,-1,-1,-1,-1],"loss_changes":[8.695688E0,2.0435085E0,6.350668E0,1.476201E0,0E0,2.274311E0,2.9843366E-1,1.9464927E0,8.6102337E-1,2.4813213E0,6.713712E-1,0E0,0E0,0E0,0E0,4.9215224E-1,0E0,0E0,0E0,0E0,0E0,0E0,0E0],"parents":[2147483647,0,0,1,1,2,2,3,3,5,5,6,6,7,7,8,8,9,9,10,10,15,15],"right_children":[2,4,6,8,-1,10,12,14,16,18,20,-1,-1,-1,-1,22,-1,-1,-1,-1,-1,-1,-1],"split_conditions":[1.6E1,3E0,1E0,1.2E1,-1.0443659E-3,1E0,3.3E1,1E0,2E0,3E0,3E0,-1.0443659E-3,-1.0802849E-2,1.4575495E-2,3.539396E-2,2E0,1.4575495E-2,-3.5232764E-2,-1.9250136E-2,-1.08100865E-2,-1.9250136E-2,6.873942E-3,-1.0443659E-3],"split_indices":[7,2,4,7,0,5,7,1,5,2,2,0,0,0,0,3,0,0,0,0,0,0,0],"split_type":[0,0,0,0,0,0,0,0,0,0,0,0,0,0,0,0,0,0,0,0,0,0,0],"sum_hessian":[5.5339825E1,2.2886618E1,3.245321E1,2.0154072E1,2.7325442E0,2.6312044E1,6.141164E0,9.273381E0,1.0880692E1,1.5735128E1,1.0576916E1,4.3092136E0,1.8319503E0,4.0923085E0,5.181073E0,9.252535E0,1.6281564E0,1.3859866E1,1.8752621E0,7.498842E0,3.0780737E0,6.961161E0,2.2913735E0],"tree_param":{"num_deleted":"0","num_feature":"8","num_nodes":"23","size_leaf_vector":"1"}},{"base_weights":[-3.1313926E-2,2.0656966E-1,-8.1756413E-1,-1.4221123E-1,5.262667E-1,-4.5346877E-1,-3.8701408E-2,-3.0549723E-1,1.9202773E-1,3.781975E-1,3.084289E-2,-2.6152736E-2,-9.164916E-3,-9.164916E-3,-1.7020424E-3,5.7608318E-3,6.8095036E-2,5.7608318E-3,4.9657294E-1,-1.7020424E-3,3.9018416E-3,1.8430848E-2,5.7608318E-3],"categories":[],"categories_nodes":[],"categories_segments":[],"categories_sizes":[],"default_left":[0,0,0,0,0,0,0,0,0,0,0,0,0,0,0,0,0,0,0,0,0,0,0],"id":10,"left_children":[1,3,5,7,9,11,-1,13,15,17,-1,-1,-1,-1,-1,-1,19,-1,21,-1,-1,-1,-1],"loss_changes":[1.0943217E1,5.0951433E0,1.7515364E0,4.436034E0,1.3725066E0,1.2335917E0,0E0,1.0558739E0,7.3227525E-2,6.905079E-1,0E0,0E0,0E0,0E0,0E0,0E0,7.186397E-1,0E0,7.213347E-1,0E0,0E0,0E0,0E0],"parents":[2147483647,0,0,1,1,2,2,3,3,4,4,5,5,7,7,8,8,9,9,16,16,18,18],"right_children":[2,4,6,8,10,12,-1,14,16,18,-1,-1,-1,-1,-1,-1,20,-1,22,-1,-1,-1,-1],"split_conditions":[3.3E1,1E0,4.8E1,3.4E1,4.2E1,2.7E1,-3.8701408E-2,1E0,1.2E1,2E0,3.084289E-2,-2.6152736E-2,-9.164916E-3,-9.164916E-3,-1.7020424E-3,5.7608318E-3,3E0,5.7608318E-3,3E0,-1.7020424E-3,3.9018416E-3,1.8430848E-2,5.7608318E-3],"split_indices":[7,5,7,0,0,0,0,4,7,2,0,0,0,0,0,0,2,0,2,0,0,0,0],"split_type":[0,0,0,0,0,0,0,0,0,0,0,0,0,0,0,0,0,0,0,0,0,0,0],"sum_hessian":[5.6605663E1,4.402344E1,1.2582221E1,2.1319551E1,2.2703892E1,8.213021E0,4.3691993E0,1.1736975E1,9.582577E0,1.8885267E1,3.8186247E0,2.8614457E0,5.351576E0,1.0297911E1,1.4390637E0,3.414143E0,6.168434E0,4.611696E0,1.427357E1,4.532527E0,1.635907E0,1.1192909E1,3.080661E0],"tree_param":{"num_deleted":"0","num_feature":"8","num_nodes":"23","size_leaf_vector":"1"}},{"base_weights":[-2.5637927E-2,4.7963554E-1,-3.6001286E-1,2.2053328E-1,9.070304E-1,-5.554918E-1,5.981134E-2,1.7943401E-3,5.6378186E-1,3.7108753E-2,1.6913455E-2,-8.4935915E-1,-2.4784023E-1,1.7943401E-3,-2.4784023E-1,1.6913455E-2,1.7943401E-3,-3.069899E-2,-1.6457992E-2,-1.6457992E-2,-7.435207E-3,-7.435207E-3,-2.8204334E-3],"categories":[],"categories_nodes":[],"categories_segments":[],"categories_sizes":[],"default_left":[0,0,0,0,0,0,0,0,0,0,0,0,0,0,0,0,0,0,0,0,0,0,0],"id":11,"left_children":[1,3,5,7,9,11,13,-1,15,-1,-1,17,19,-1,21,-1,-1,-1,-1,-1,-1,-1,-1],"loss_changes":[9.928986E0,2.3940578E0,4.367572E0,2.5627367E0,1.1686554E0,3.3956614E0,5.0269747E-1,0E0,4.6358418E-1,0E0,0E0,8.5052586E-1,4.6836096E-1,0E0,2.9957354E-1,0E0,0E0,0E0,0E0,0E0,0E0,0E0,0E0],"parents":[2147483647,0,0,1,1,2,2,3,3,4,4,5,5,6,6,8,8,11,11,12,12,14,14],"right_children":[2,4,6,8,10,12,14,-1,16,-1,-1,18,20,-1,22,-1,-1,-1,-1,-1,-1,-1,-1],"split_conditions":[1.6E1,3.8E1,1E0,1E0,1.2E1,1E0,2.7E1,1.7943401E-3,1.5E1,3.7108753E-2,1.6913455E-2,3.5E1,1E0,1.7943401E-3,2.7E1,1.6913455E-2,1.7943401E-3,-3.069899E-2,-1.6457992E-2,-1.6457992E-2,-7.435207E-3,-7.435207E-3,-2.8204334E-3],"split_indices":[7,0,4,1,7,5,7,0,7,0,0,0,3,0,0,0,0,0,0,0,0,0,0],"split_type":[0,0,0,0,0,0,0,0,0,0,0,0,0,0,0,0,0,0,0,0,0,0,0],"sum_hessian":[5.6746456E1,2.2425259E1,3.4321198E1,1.4905189E1,7.520071E0,2.6989042E1,7.332155E0,5.8641644E0,9.041024E0,4.495409E0,3.0246618E0,1.5876206E1,1.1112837E1,4.162915E0,3.1692398E0,7.500582E0,1.540442E0,1.088447E1,4.9917374E0,1.885895E0,9.226941E0,1.43909E0,1.7301497E0],"tree_param":{"num_deleted":"0","num_feature":"8","num_nodes":"23","size_leaf_vector":"1"}},{"base_weights":[4.95984E-2,2.9010195E-1,-7.519258E-1,1.4207454E-1,7.956372E-1,-9.0307546E-1,-6.927358E-3,-1.833332E-1,4.6885586E-1,3.0308034E-2,1.4065675E-2,-6.3228154E-1,-3.6317296E-2,4.2828396E-3,-2.3091194E-1,1.4065675E-2,4.2828396E-3,-2.5067246E-2,-1.7009811E-2,-6.927358E-3,-1.3222593E-3],"categories":[],"categories_nodes":[],"categories_segments":[],"categories_sizes":[],"default_left":[0,0,0,0,0,0,0,0,0,0,0,0,0,0,0,0,0,0,0,0,0],"id":12,"left_children":[1,3,5,7,9,11,-1,13,15,-1,-1,17,-1,-1,19,-1,-1,-1,-1,-1,-1],"loss_changes":[1.1458935E1,3.2974858E0,1.9531631E0,4.7338758E0,1.0818448E0,2.916479E-1,0E0,2.2620823E0,6.1857367E-1,0E0,0E0,1.7659426E-2,0E0,0E0,1.1378582E0,0E0,0E0,0E0,0E0,0E0,0E0],"parents":[2147483647,0,0,1,1,2,2,3,3,4,4,5,5,7,7,8,8,11,11,14,14],"right_children":[2,4,6,8,10,12,-1,14,16,-1,-1,18,-1,-1,20,-1,-1,-1,-1,-1,-1],"split_conditions":[3.3E1,1E0,2E0,1E0,2E0,4.8E1,-6.927358E-3,1.2E1,6.403E3,3.0308034E-2,1.4065675E-2,1E0,-3.6317296E-2,4.2828396E-3,3E0,1.4065675E-2,4.2828396E-3,-2.5067246E-2,-1.7009811E-2,-6.927358E-3,-1.3222593E-3],"split_indices":[7,4,5,5,3,7,0,7,6,0,0,5,0,0,2,0,0,0,0,0,0],"split_type":[0,0,0,0,0,0,0,0,0,0,0,0,0,0,0,0,0,0,0,0,0],"sum_hessian":[5.7312153E1,4.4575108E1,1.2737044E1,3.5470047E1,9.105062E0,1.1694623E1,1.0424213E0,1.9802118E1,1.5667929E1,7.1219115E0,1.9831501E0,7.843561E0,3.8510618E0,3.901579E0,1.5900539E1,1.4524388E1,1.1435401E0,4.2239947E0,3.6195667E0,1.4067948E1,1.8325912E0],"tree_param":{"num_deleted":"0","num_feature":"8","num_nodes":"21","size_leaf_vector":"1"}},{"base_weights":[9.118676E-2,-2.316951E-1,4.0163925E-1,-5.217844E-1,8.4972076E-2,5.7725096E-1,2.5491621E-3,-7.1244496E-1,-6.552185E-3,-1.4968276E-1,2.5491621E-3,6.5908E-1,2.5390148E-1,-2.7445463E-2,-1.3962766E-2,-6.552185E-3,2.5491621E-3,2.4483328E-1,2.361624E-2,8.4972076E-2,1.7012516E-2,2.5491621E-3,9.741283E-3,2.5491621E-3,7.517512E-3],"categories":[],"categories_nodes":[],"categories_segments":[],"categories_sizes":[],"default_left":[0,0,0,0,0,0,0,0,0,0,0,0,0,0,0,0,0,0,0,0,0,0,0,0,0],"id":13,"left_children":[1,3,5,7,9,11,-1,13,-1,15,-1,17,19,-1,-1,-1,-1,21,-1,23,-1,-1,-1,-1,-1],"loss_changes":[5.588878E0,3.7326171E0,2.8636413E0,2.2366471E0,2.0690268E-1,4.5614815E-1,0E0,4.311447E-1,0E0,7.04829E-1,0E0,7.721143E-1,3.289616E-1,0E0,0E0,0E0,0E0,5.0684214E-2,0E0,8.505747E-2,0E0,0E0,0E0,0E0,0E0],"parents":[2147483647,0,0,1,1,2,2,3,3,4,4,5,5,7,7,9,9,11,11,12,12,17,17,19,19],"right_children":[2,4,6,8,10,12,-1,14,-1,16,-1,18,20,-1,-1,-1,-1,22,-1,24,-1,-1,-1,-1,-1],"split_conditions":[1E0,3.6E1,3E0,1E0,1E0,2E0,2.5491621E-3,2.7E1,-6.552185E-3,3E0,2.5491621E-3,2.6E1,2E0,-2.7445463E-2,-1.3962766E-2,-6.552185E-3,2.5491621E-3,1E0,2.361624E-2,1E0,1.7012516E-2,2.5491621E-3,9.741283E-3,2.5491621E-3,7.517512E-3],"split_indices":[5,0,2,4,3,3,0,0,0,2,0,0,5,0,0,0,0,1,0,1,0,0,0,0,0],"split_type":[0,0,0,0,0,0,0,0,0,0,0,0,0,0,0,0,0,0,0,0,0,0,0,0,0],"sum_hessian":[5.382691E1,2.6509623E1,2.7317286E1,1.6651468E1,9.858154E0,2.2564007E1,4.753279E0,1.5015454E1,1.6360147E0,2.8886971E0,6.969457E0,1.7178425E1,5.385582E0,7.0453286E0,7.9701257E0,1.4142312E0,1.4744658E0,4.7457933E0,1.2432631E1,4.155216E0,1.2303659E0,2.183459E0,2.5623345E0,1.7907586E0,2.3644574E0],"tree_param":{"num_deleted":"0","num_feature":"8","num_nodes":"25","size_leaf_vector":"1"}},{"base_weights":[2.3737181E-2,2.4199718E-1,-7.9562116E-1,7.286666E-1,8.060376E-2,-4.6171537E-1,-3.1587828E-2,1.2139056E-2,4.2247053E-2,-2.7129537E-1,4.046352E-1,-7.265696E-1,-8.304359E-3,-8.304359E-3,2.0000972E-3,4.046352E-1,6.666991E-2,-2.2719644E-2,-1.5050724E-2,1.2139056E-2,6.0802503E-3,1.2139056E-2,2.0000972E-3],"categories":[],"categories_nodes":[],"categories_segments":[],"categories_sizes":[],"default_left":[0,0,0,0,0,0,0,0,0,0,0,0,0,0,0,0,0,0,0,0,0,0,0],"id":14,"left_children":[1,3,5,7,9,11,-1,-1,-1,13,15,17,-1,-1,-1,19,21,-1,-1,-1,-1,-1,-1],"loss_changes":[1.0488064E1,3.5722198E0,5.743122E-1,4.6579847E0,4.554959E0,4.9330854E-1,0E0,0E0,0E0,2.0118449E0,4.3366623E-1,3.0438972E-1,0E0,0E0,0E0,2.6491642E-2,5.730017E-1,0E0,0E0,0E0,0E0,0E0,0E0],"parents":[2147483647,0,0,1,1,2,2,3,3,4,4,5,5,9,9,10,10,11,11,15,15,16,16],"right_children":[2,4,6,8,10,12,-1,-1,-1,14,16,18,-1,-1,-1,20,22,-1,-1,-1,-1,-1,-1],"split_conditions":[3.3E1,1.2E1,4.2E1,3.6E1,1E0,1E0,-3.1587828E-2,1.2139056E-2,4.2247053E-2,3E0,3E0,3.2E1,-8.304359E-3,-8.304359E-3,2.0000972E-3,2E0,3.031E3,-2.2719644E-2,-1.5050724E-2,1.2139056E-2,6.0802503E-3,1.2139056E-2,2.0000972E-3],"split_indices":[7,7,7,0,5,5,0,0,0,2,2,0,0,0,0,3,6,0,0,0,0,0,0],"split_type":[0,0,0,0,0,0,0,0,0,0,0,0,0,0,0,0,0,0,0,0,0,0,0],"sum_hessian":[5.6570568E1,4.5227543E1,1.1343025E1,1.038812E1,3.4839424E1,6.152877E0,5.190149E0,5.4137864E0,4.974334E0,1.7564304E1,1.727512E1,3.0264857E0,3.126391E0,1.5284481E1,2.2798233E0,1.4194857E1,3.0802627E0,1.9432428E0,1.083243E0,1.053118E1,3.6636763E0,1.2382371E0,1.8420255E0],"tree_param":{"num_deleted":"0","num_feature":"8","num_nodes":"23","size_leaf_vector":"1"}},{"base_weights":[9.244974E-2,2.218083E-1,-9.1493016E-1,7.21262E-2,8.071104E-1,-1.0396828E-2,-1.0371112E0,-2.700441E-1,4.3961832E-1,1.3188549E-2,3.423977E-2,-1.07158525E-2,-3.5273947E-2,-1.0396828E-2,2.5436133E-3,2.016372E-1,1.3188549E-2,2.5436133E-3,1.3188549E-2],"categories":[],"categories_nodes":[],"categories_segments":[],"categories_sizes":[],"default_left":[0,0,0,0,0,0,0,0,0,0,0,0,0,0,0,0,0,0,0],"id":15,"left_children":[1,3,5,7,9,-1,11,13,15,-1,-1,-1,-1,-1,-1,17,-1,-1,-1],"loss_changes":[7.5505586E0,4.389949E0,3.6515045E-1,5.83881E0,1.3504362E0,0E0,9.830761E-2,3.8501117E0,2.2939682E-1,0E0,0E0,0E0,0E0,0E0,0E0,7.362392E-1,0E0,0E0,0E0],"parents":[2147483647,0,0,1,1,2,2,3,3,4,4,6,6,7,7,8,8,15,15],"right_children":[2,4,6,8,10,-1,12,14,16,-1,-1,-1,-1,-1,-1,18,-1,-1,-1],"split_conditions":[7.763E3,1E0,1E0,1E0,3E1,-1.0396828E-2,1E0,3.6E1,1E0,1.3188549E-2,3.423977E-2,-1.07158525E-2,-3.5273947E-2,-1.0396828E-2,2.5436133E-3,2E0,1.3188549E-2,2.5436133E-3,1.3188549E-2],"split_indices":[6,4,1,5,0,0,3,0,1,0,0,0,0,0,0,5,0,0,0],"split_type":[0,0,0,0,0,0,0,0,0,0,0,0,0,0,0,0,0,0,0],"sum_hessian":[5.5384296E1,4.977275E1,5.611547E0,4.0530834E1,9.241915E0,1.1150196E0,4.4965277E0,2.211428E1,1.8416553E1,4.2977314E0,4.9441833E0,1.3675641E0,3.1289635E0,1.38092575E1,8.305024E0,6.462904E0,1.195365E1,4.8548894E0,1.608015E0],"tree_param":{"num_deleted":"0","num_feature":"8","num_nodes":"19","size_leaf_vector":"1"}},{"base_weights":[-1.1677036E-2,1.9651046E-1,-2.111443E-2,6.34995E-1,3.041597E-2,9.981164E-3,3.6965996E-2,-1.4414404E-1,3.3270547E-1,9.428071E-2,-2.5365192E-1,9.981164E-3,2.8284213E-3,2.8284213E-3,-4.526274E-4,-2.390568E-3,-7.6095574E-3],"categories":[],"categories_nodes":[],"categories_segments":[],"categories_sizes":[],"default_left":[0,0,0,0,0,0,0,0,0,0,0,0,0,0,0,0,0],"id":16,"left_children":[1,3,-1,5,7,-1,-1,9,11,13,15,-1,-1,-1,-1,-1,-1],"loss_changes":[8.4865055E0,3.281377E0,0E0,3.7458196E0,2.9329245E0,0E0,0E0,1.0411112E0,2.8625536E-1,8.200387E-2,3.933978E-1,0E0,0E0,0E0,0E0,0E0,0E0],"parents":[2147483647,0,0,1,1,3,3,4,4,7,7,8,8,9,9,10,10],"right_children":[2,4,-1,6,8,-1,-1,10,12,14,16,-1,-1,-1,-1,-1,-1],"split_conditions":[3.3E1,1.2E1,-2.111443E-2,3.6E1,1E0,9.981164E-3,3.6965996E-2,1.6E1,2E0,1E0,2E0,9.981164E-3,2.8284213E-3,2.8284213E-3,-4.526274E-4,-2.390568E-3,-7.6095574E-3],"split_indices":[7,7,0,0,4,0,0,7,3,1,3,0,0,0,0,0,0],"split_type":[0,0,0,0,0,0,0,0,0,0,0,0,0,0,0,0,0],"sum_hessian":[5.6935642E1,4.432057E1,1.2615072E1,1.1400498E1,3.292007E1,6.2335024E0,5.166996E0,2.6016668E1,6.9034023E0,1.02675705E1,1.5749098E1,4.9220433E0,1.9813594E0,3.6687489E0,6.598822E0,1.1747055E1,4.002043E0],"tree_param":{"num_deleted":"0","num_feature":"8","num_nodes":"17","size_leaf_vector":"1"}},{"base_weights":[-9.013737E-2,6.4599043E-1,-2.5211683E-1,2.640218E-2,5.908104E-3,-3.6956495E-1,5.908104E-3,-5.2429974E-1,-8.6314075E-2,-6.6975784E-1,-3.053069E-1,-8.6314075E-2,-3.053069E-1,-2.6142458E-2,-9.159207E-3,-9.159207E-3,-2.2366283E-2,-2.5894223E-3,-5.874315E-3,-5.874315E-3,-9.159207E-3],"categories":[],"categories_nodes":[],"categories_segments":[],"categories_sizes":[],"default_left":[0,0,0,0,0,0,0,0,0,0,0,0,0,0,0,0,0,0,0,0,0],"id":17,"left_children":[1,3,5,-1,-1,7,-1,9,11,13,15,17,19,-1,-1,-1,-1,-1,-1,-1,-1],"loss_changes":[7.078731E0,2.072309E0,4.329767E0,0E0,0E0,3.2403688E0,0E0,2.0611467E0,2.8963763E-1,2.567832E0,6.871264E-1,3.4196258E-2,2.0754337E-4,0E0,0E0,0E0,0E0,0E0,0E0,0E0,0E0],"parents":[2147483647,0,0,1,1,2,2,5,5,7,7,8,8,9,9,10,10,11,11,12,12],"right_children":[2,4,6,-1,-1,8,-1,10,12,14,16,18,20,-1,-1,-1,-1,-1,-1,-1,-1],"split_conditions":[1.2E1,3E0,2E0,2.640218E-2,5.908104E-3,1E0,5.908104E-3,3E0,2.7E1,1E0,7.763E3,2E0,6.224E3,-2.6142458E-2,-9.159207E-3,-9.159207E-3,-2.2366283E-2,-2.5894223E-3,-5.874315E-3,-5.874315E-3,-9.159207E-3],"split_indices":[7,2,5,0,0,4,0,2,7,5,6,3,6,0,0,0,0,0,0,0,0],"split_type":[0,0,0,0,0,0,0,0,0,0,0,0,0,0,0,0,0,0,0,0,0],"sum_hessian":[5.700072E1,9.741526E0,4.7259193E1,8.165087E0,1.5764394E0,4.293553E1,4.32366E0,3.4306057E1,8.629476E0,2.7967272E1,6.338786E0,5.234911E0,3.3945646E0,1.930903E1,8.658242E0,3.3124292E0,3.0263572E0,3.4464648E0,1.7884461E0,1.7799048E0,1.6146598E0],"tree_param":{"num_deleted":"0","num_feature":"8","num_nodes":"21","size_leaf_vector":"1"}},{"base_weights":[4.465556E-3,3.0864492E-1,-3.059564E-1,2.1613814E-1,2.7826566E-2,-5.0916094E-1,1.3442636E-3,5.718452E-1,9.339281E-2,-3.3079296E-1,-3.2176666E-2,-7.61725E-3,1.3442636E-3,9.978569E-3,1.7155355E-2,1.5226775E-1,4.0327905E-5,-2.624E-2,-2.5390834E-1,4.0327905E-5,-5.903522E-3,9.978569E-3,1.5160145E-3,-7.61725E-3,-2.4043841E-2],"categories":[],"categories_nodes":[],"categories_segments":[],"categories_sizes":[],"default_left":[0,0,0,0,0,0,0,0,0,0,0,0,0,0,0,0,0,0,0,0,0,0,0,0,0],"id":18,"left_children":[1,3,5,7,-1,9,11,13,15,17,-1,-1,19,-1,-1,21,-1,-1,23,-1,-1,-1,-1,-1,-1],"loss_changes":[5.2644405E0,1.4113369E0,3.0845606E0,1.3040053E0,0E0,1.8396158E0,2.916311E-1,4.6675515E-1,2.4482258E-1,1.4853907E0,0E0,0E0,8.346182E-2,0E0,0E0,5.3056926E-1,0E0,0E0,1.3375895E0,0E0,0E0,0E0,0E0,0E0,0E0],"parents":[2147483647,0,0,1,1,2,2,3,3,5,5,6,6,7,7,8,8,9,9,12,12,15,15,18,18],"right_children":[2,4,6,8,-1,10,12,14,16,18,-1,-1,20,-1,-1,22,-1,-1,24,-1,-1,-1,-1,-1,-1],"split_conditions":[2.1E1,2E0,1E0,9E0,2.7826566E-2,2E0,2E0,1E0,3E0,1E0,-3.2176666E-2,-7.61725E-3,7.763E3,9.978569E-3,1.7155355E-2,1.2E1,4.0327905E-5,-2.624E-2,3.9E1,4.0327905E-5,-5.903522E-3,9.978569E-3,1.5160145E-3,-7.61725E-3,-2.4043841E-2],"split_indices":[7,4,4,7,0,3,2,1,2,1,0,0,6,0,0,7,0,0,7,0,0,0,0,0,0],"split_type":[0,0,0,0,0,0,0,0,0,0,0,0,0,0,0,0,0,0,0,0,0,0,0,0,0],"sum_hessian":[5.375315E1,2.7152456E1,2.6600695E1,2.4795544E1,2.3569129E0,2.0836756E1,5.76394E0,4.412836E0,2.0382708E1,1.7031734E1,3.8050206E0,1.1383028E0,4.625637E0,2.1329598E0,2.279876E0,1.7702282E1,2.6804252E0,3.2986615E0,1.3733074E1,3.499437E0,1.1262E0,2.9992085E0,1.47030735E1,1.0056651E1,3.676422E0],"tree_param":{"num_deleted":"0","num_feature":"8","num_nodes":"25","size_leaf_vector":"1"}},{"base_weights":[1.424255E-2,1.5425098E-1,-8.1409746E-1,-5.942574E-2,6.307729E-1,-9.897697E-3,-2.7828911E-2,-3.2992324E-1,2.058421E-1,2.8567356E-1,7.711705E-1,-9.897697E-3,8.570206E-3,-2.5035393E-1,2.8567356E-1,8.570206E-3,1.4777106E-2,2.497023E-2,8.570206E-3,-2.8045496E-3,-9.897697E-3,5.297944E-4,8.570206E-3],"categories":[],"categories_nodes":[],"categories_segments":[],"categories_sizes":[],"default_left":[0,0,0,0,0,0,0,0,0,0,0,0,0,0,0,0,0,0,0,0,0,0,0],"id":19,"left_children":[1,3,5,7,9,-1,-1,11,13,15,17,-1,-1,19,21,-1,-1,-1,-1,-1,-1,-1,-1],"loss_changes":[6.3312826E0,4.7837267E0,2.2178936E-1,3.5890348E0,1.0468411E0,0E0,0E0,1.0332336E0,2.7698674E0,5.2817166E-3,3.0863714E-1,0E0,0E0,3.2688975E-1,4.0506124E-1,0E0,0E0,0E0,0E0,0E0,0E0,0E0,0E0],"parents":[2147483647,0,0,1,1,2,2,3,3,4,4,7,7,8,8,9,9,10,10,13,13,14,14],"right_children":[2,4,6,8,10,-1,-1,12,14,16,18,-1,-1,20,22,-1,-1,-1,-1,-1,-1,-1,-1],"split_conditions":[6.758E3,3.6E1,1E0,1E0,1E0,-9.897697E-3,-2.7828911E-2,2E0,1E0,3E0,3.643E3,-9.897697E-3,8.570206E-3,2E0,2E0,8.570206E-3,1.4777106E-2,2.497023E-2,8.570206E-3,-2.8045496E-3,-9.897697E-3,5.297944E-4,8.570206E-3],"split_indices":[6,0,1,1,3,0,0,5,5,2,6,0,0,3,2,0,0,0,0,0,0,0,0],"split_type":[0,0,0,0,0,0,0,0,0,0,0,0,0,0,0,0,0,0,0,0,0,0,0],"sum_hessian":[5.2509197E1,4.561329E1,6.895907E0,3.209631E1,1.3516981E1,1.789231E0,5.106676E0,1.1777297E1,2.031901E1,2.3946176E0,1.1122363E1,1.0745346E1,1.0319517E0,9.397075E0,1.0921936E1,1.364748E0,1.0298696E0,9.867083E0,1.2552813E0,7.9720664E0,1.4250088E0,2.4181833E0,8.503753E0],"tree_param":{"num_deleted":"0","num_feature":"8","num_nodes":"23","size_leaf_vector":"1"}},{"base_weights":[5.7617337E-2,1.8297604E-1,-2.6126115E-2,8.212039E-2,8.705675E-1,2.1720721E-1,-3.4394723E-1,3.143355E-2,1.4290318E-2,2.6902005E-1,-1.0318417E-2,1.4290318E-2,-3.4394723E-1,-1.1239077E-3,9.9656675E-3,6.291899E-4,-1.0318417E-2],"categories":[],"categories_nodes":[],"categories_segments":[],"categories_sizes":[],"default_left":[0,0,0,0,0,0,0,0,0,0,0,0,0,0,0,0,0],"id":20,"left_children":[1,3,-1,5,7,9,11,-1,-1,13,-1,-1,15,-1,-1,-1,-1],"loss_changes":[6.5953636E0,3.364252E0,0E0,2.7663136E0,1.4447355E-1,1.3200033E0,1.7767636E0,0E0,0E0,8.586483E-1,0E0,0E0,2.193327E-1,0E0,0E0,0E0,0E0],"parents":[2147483647,0,0,1,1,3,3,4,4,5,5,6,6,9,9,12,12],"right_children":[2,4,-1,6,8,10,12,-1,-1,14,-1,-1,16,-1,-1,-1,-1],"split_conditions":[7.763E3,2E0,-2.6126115E-2,2E0,2.302E3,4.7E1,1.2E1,3.143355E-2,1.4290318E-2,1E0,-1.0318417E-2,1.4290318E-2,1.3E1,-1.1239077E-3,9.9656675E-3,6.291899E-4,-1.0318417E-2],"split_indices":[6,5,0,3,6,7,7,0,0,3,0,0,7,0,0,0,0],"split_type":[0,0,0,0,0,0,0,0,0,0,0,0,0,0,0,0,0],"sum_hessian":[5.4295048E1,4.8543884E1,5.7511644E0,4.3310543E1,5.233342E0,3.370519E1,9.605354E0,3.1039207E0,2.1294212E0,3.1914074E1,1.7911133E0,1.3801111E0,8.225244E0,3.993863E0,2.7920212E1,1.535413E0,6.689831E0],"tree_param":{"num_deleted":"0","num_feature":"8","num_nodes":"17","size_leaf_vector":"1"}},{"base_weights":[-2.6325407E-2,1.1222073E-1,-7.9330367E-1,-1.4066234E-1,3.5676777E-1,-2.8685432E-2,-1.02162445E-2,3.2415814E-3,-3.4054148E-1,2.2987449E-1,6.8798447E-1,-3.4054148E-1,-3.4873313E-3,3.8357574E-1,3.2415814E-3,1.3767884E-2,3.2181066E-2,-1.02162445E-2,-6.8517877E-3,7.374427E-3,1.3767884E-2],"categories":[],"categories_nodes":[],"categories_segments":[],"categories_sizes":[],"default_left":[0,0,0,0,0,0,0,0,0,0,0,0,0,0,0,0,0,0,0,0,0],"id":21,"left_children":[1,3,5,7,9,-1,-1,-1,11,13,15,17,-1,19,-1,-1,-1,-1,-1,-1,-1],"loss_changes":[5.932379E0,2.9847417E0,6.1002445E-1,3.4269912E0,8.676443E-1,0E0,0E0,0E0,9.36728E-1,9.483807E-1,5.4242253E-1,7.827425E-2,0E0,8.6676145E-1,0E0,0E0,0E0,0E0,0E0,0E0,0E0],"parents":[2147483647,0,0,1,1,2,2,3,3,4,4,8,8,9,9,10,10,11,11,13,13],"right_children":[2,4,6,8,10,-1,-1,-1,12,14,16,18,-1,20,-1,-1,-1,-1,-1,-1,-1],"split_conditions":[6.758E3,1E0,1E0,1.1E1,2E0,-2.8685432E-2,-1.02162445E-2,3.2415814E-3,1E0,3E1,3.5E1,5.7E1,-3.4873313E-3,1E0,3.2415814E-3,1.3767884E-2,3.2181066E-2,-1.02162445E-2,-6.8517877E-3,7.374427E-3,1.3767884E-2],"split_indices":[6,5,4,7,5,0,0,0,4,7,0,0,0,1,0,0,0,0,0,0,0],"split_type":[0,0,0,0,0,0,0,0,0,0,0,0,0,0,0,0,0,0,0,0,0],"sum_hessian":[5.3990124E1,4.6452652E1,7.5374722E0,2.3045938E1,2.3406713E1,5.5330915E0,2.004381E0,3.8716187E0,1.917432E1,1.8148012E1,5.2587013E0,1.7296371E1,1.877948E0,1.539013E1,2.757881E0,3.3880868E0,1.8706148E0,1.6204924E1,1.0914484E0,5.6478395E0,9.7422905E0],"tree_param":{"num_deleted":"0","num_feature":"8","num_nodes":"21","size_leaf_vector":"1"}},{"base_weights":[-1.9877784E-2,5.1956847E-2,-3.0404538E-2,6.461789E-1,-6.886478E-2,8.659712E-3,7.827822E-1,1.1658499E-1,-4.8076388E-1,3.3259053E-2,1.1336497E-2,1.8159805E-1,-1.4421507E-2,-7.5981785E-3,-1.4422916E-2,1.9442224E-3,8.659712E-3],"categories":[],"categories_nodes":[],"categories_segments":[],"categories_sizes":[],"default_left":[0,0,0,0,0,0,0,0,0,0,0,0,0,0,0,0,0],"id":22,"left_children":[1,3,-1,5,7,-1,9,11,13,-1,-1,15,-1,-1,-1,-1,-1],"loss_changes":[3.7928548E0,3.6213167E0,0E0,4.090495E-1,4.1877227E0,0E0,4.3523574E-1,1.3493094E0,8.605909E-2,0E0,0E0,8.081277E-1,0E0,0E0,0E0,0E0,0E0],"parents":[2147483647,0,0,1,1,3,3,4,4,6,6,7,7,8,8,11,11],"right_children":[2,4,-1,6,8,-1,10,12,14,-1,-1,16,-1,-1,-1,-1,-1],"split_conditions":[1.0961E4,1.2E1,-3.0404538E-2,1E0,2E0,8.659712E-3,9E0,4.8E1,2.4E1,3.3259053E-2,1.1336497E-2,1E0,-1.4421507E-2,-7.5981785E-3,-1.4422916E-2,1.9442224E-3,8.659712E-3],"split_indices":[6,7,0,1,3,0,7,7,7,0,0,4,0,0,0,0,0],"split_type":[0,0,0,0,0,0,0,0,0,0,0,0,0,0,0,0,0],"sum_hessian":[5.140178E1,4.881996E1,2.5818198E0,7.514436E0,4.1305527E1,2.0403798E0,5.474056E0,3.149892E1,9.806604E0,2.0700643E0,3.4039915E0,2.903463E1,2.4642923E0,5.1290507E0,4.677553E0,2.3660336E1,5.374293E0],"tree_param":{"num_deleted":"0","num_feature":"8","num_nodes":"17","size_leaf_vector":"1"}},{"base_weights":[-2.9317716E-2,1.5119521E-1,-6.140917E-1,-2.4638597E-2,7.1950203E-1,-4.093533E-1,-2.5248773E-2,3.4743172E-1,-1.6644447E-1,1.0422952E-2,3.5383638E-2,-1.8764686E-2,-6.943447E-3,2.7148088E-3,1.0422952E-2,9.049363E-2,-2.1070288E-1,-6.943447E-3,2.7148088E-3,-2.982148E-3,-6.943447E-3],"categories":[],"categories_nodes":[],"categories_segments":[],"categories_sizes":[],"default_left":[0,0,0,0,0,0,0,0,0,0,0,0,0,0,0,0,0,0,0,0,0],"id":23,"left_children":[1,3,5,7,9,11,-1,13,15,-1,-1,-1,-1,-1,-1,17,19,-1,-1,-1,-1],"loss_changes":[5.891541E0,4.2924376E0,2.68301E-1,2.2949286E0,2.092739E0,2.7085292E-1,0E0,8.553927E-1,4.156649E-1,0E0,0E0,0E0,0E0,0E0,0E0,2.6007354E-1,2.233094E-1,0E0,0E0,0E0,0E0],"parents":[2147483647,0,0,1,1,2,2,3,3,4,4,5,5,7,7,8,8,15,15,16,16],"right_children":[2,4,6,8,10,12,-1,14,16,-1,-1,-1,-1,-1,-1,18,20,-1,-1,-1,-1],"split_conditions":[3.3E1,1E0,4.8E1,1.2E1,3.5E1,3E1,-2.5248773E-2,1E0,1E0,1.0422952E-2,3.5383638E-2,-1.8764686E-2,-6.943447E-3,2.7148088E-3,1.0422952E-2,1E0,2.4E1,-6.943447E-3,2.7148088E-3,-2.982148E-3,-6.943447E-3],"split_indices":[7,4,7,7,0,0,0,1,3,0,0,0,0,0,0,1,7,0,0,0,0],"split_type":[0,0,0,0,0,0,0,0,0,0,0,0,0,0,0,0,0,0,0,0,0],"sum_hessian":[5.3933056E1,4.177809E1,1.21549635E1,3.2636898E1,9.141192E0,7.871322E0,4.2836413E0,6.855213E0,2.5781685E1,4.9157767E0,4.2254157E0,2.7371056E0,5.134217E0,2.1760395E0,4.679174E0,2.6202934E0,2.3161392E1,1.1385025E0,1.4817909E0,1.5476566E1,7.684825E0],"tree_param":{"num_deleted":"0","num_feature":"8","num_nodes":"21","size_leaf_vector":"1"}},{"base_weights":[-5.181056E-3,3.1199616E-1,-2.2374113E-1,4.4127516E-2,5.1201075E-1,-4.0160787E-1,4.4127516E-2,4.4127516E-2,2.5362467E-2,8.533376E-1,1.8931274E-1,-5.637099E-1,-1.7874017E-1,1.3238254E-3,-1.7874017E-1,1.3238254E-3,1.1280525E-2,1.5639754E-2,3.0610599E-2,1.3238254E-3,1.24273645E-2,-2.8163305E-2,-3.7122506E-1,-5.362205E-3,-1.1136752E-2,-5.362205E-3,-2.0191898E-3,-1.1136752E-2,-1.9650027E-2],"categories":[],"categories_nodes":[],"categories_segments":[],"categories_sizes":[],"default_left":[0,0,0,0,0,0,0,0,0,0,0,0,0,0,0,0,0,0,0,0,0,0,0,0,0,0,0,0,0],"id":24,"left_children":[1,3,5,7,9,11,13,15,-1,17,19,21,23,-1,25,-1,-1,-1,-1,-1,-1,-1,27,-1,-1,-1,-1,-1,-1],"loss_changes":[4.031133E0,1.6558824E0,2.9773126E0,2.0019035E0,1.5292873E0,1.0296693E0,6.440977E-1,2.2008765E-1,0E0,6.590843E-2,4.8335052E-1,1.363801E0,4.8783535E-1,0E0,1.5531316E-1,0E0,0E0,0E0,0E0,0E0,0E0,0E0,7.934952E-2,0E0,0E0,0E0,0E0,0E0,0E0],"parents":[2147483647,0,0,1,1,2,2,3,3,4,4,5,5,6,6,7,7,9,9,10,10,11,11,12,12,14,14,22,22],"right_children":[2,4,6,8,10,12,14,16,-1,18,20,22,24,-1,26,-1,-1,-1,-1,-1,-1,-1,28,-1,-1,-1,-1,-1,-1],"split_conditions":[1.6E1,1E0,1E0,3.8E1,1.2E1,1E0,2.7E1,2E0,2.5362467E-2,3.5E1,1E0,2.7E1,9.629E3,1.3238254E-3,2.7E1,1.3238254E-3,1.1280525E-2,1.5639754E-2,3.0610599E-2,1.3238254E-3,1.24273645E-2,-2.8163305E-2,4.8E1,-5.362205E-3,-1.1136752E-2,-5.362205E-3,-2.0191898E-3,-1.1136752E-2,-1.9650027E-2],"split_indices":[7,1,4,0,7,5,7,5,0,0,5,0,6,0,0,0,0,0,0,0,0,0,7,0,0,0,0,0,0],"split_type":[0,0,0,0,0,0,0,0,0,0,0,0,0,0,0,0,0,0,0,0,0,0,0,0,0,0,0,0,0],"sum_hessian":[5.6143635E1,2.2730022E1,3.3413612E1,8.379094E0,1.4350928E1,2.6423796E1,6.9898176E0,6.258136E0,2.1209583E0,6.175035E0,8.175893E0,1.535445E1,1.1069345E1,3.8188038E0,3.171014E0,5.242403E0,1.015733E0,2.6430016E0,3.5320337E0,4.2213163E0,3.954577E0,5.5428476E0,9.811603E0,9.886556E0,1.1827896E0,1.6673135E0,1.5037005E0,8.232596E0,1.5790068E0],"tree_param":{"num_deleted":"0","num_feature":"8","num_nodes":"29","size_leaf_vector":"1"}},{"base_weights":[4.2676855E-2,-4.6670746E-2,7.378401E-1,2.990677E-2,-1.9658314E-2,1.0367541E-2,3.7397128E-2,1.3840175E-1,-3.126852E-1,1.0367541E-2,8.94486E-2,-3.126852E-1,2.612314E-1,1.069097E-3,6.5254993E-3,-1.5945304E-3,-9.380556E-3,1.0367541E-2,5.768933E-4],"categories":[],"categories_nodes":[],"categories_segments":[],"categories_sizes":[],"default_left":[0,0,0,0,0,0,0,0,0,0,0,0,0,0,0,0,0,0,0],"id":25,"left_children":[1,3,5,7,-1,-1,-1,9,11,-1,13,15,17,-1,-1,-1,-1,-1,-1],"loss_changes":[3.3905668E0,2.29492E0,1.8682737E0,1.7774132E0,0E0,0E0,0E0,5.645184E-1,9.1835725E-1,0E0,3.98477E-1,1.1808133E-1,7.9784915E-2,0E0,0E0,0E0,0E0,0E0,0E0],"parents":[2147483647,0,0,1,1,2,2,3,3,7,7,8,8,10,10,11,11,12,12],"right_children":[2,4,6,8,-1,-1,-1,10,12,-1,14,16,18,-1,-1,-1,-1,-1,-1],"split_conditions":[2E0,7.763E3,2.9E1,2E0,-1.9658314E-2,1.0367541E-2,3.7397128E-2,6.39E2,3.4E1,1.0367541E-2,1E0,1.86E3,2.249E3,1.069097E-3,6.5254993E-3,-1.5945304E-3,-9.380556E-3,1.0367541E-2,5.768933E-4],"split_indices":[4,6,0,3,0,0,0,6,0,0,4,6,6,0,0,0,0,0,0],"split_type":[0,0,0,0,0,0,0,0,0,0,0,0,0,0,0,0,0,0,0],"sum_hessian":[5.3034267E1,4.782084E1,5.2134295E0,4.3320877E1,4.499962E0,2.587149E0,2.6262805E0,3.3780388E1,9.540488E0,1.5990117E0,3.2181377E1,7.4555144E0,2.0849736E0,2.8927496E1,3.2538812E0,2.204572E0,5.2509427E0,1.008456E0,1.0765176E0],"tree_param":{"num_deleted":"0","num_feature":"8","num_nodes":"19","size_leaf_vector":"1"}},{"base_weights":[9.939351E-3,4.435013E-1,-2.3071697E-1,1.5643597E-1,6.86547E-1,-3.8507983E-1,1.0639216E-1,4.2149147E-1,3.1917647E-3,1.2644744E-2,8.3404106E-1,-4.7492883E-1,-4.180315E-3,1.0639216E-1,-4.180315E-3,7.9182545E-3,1.2644744E-2,2.9378973E-2,1.2644744E-2,-5.805121E-1,-9.214089E-3,-4.94275E-4,1.0639216E-1,-2.4573365E-2,-9.214089E-3,3.1917647E-3,7.6715293E-4],"categories":[],"categories_nodes":[],"categories_segments":[],"categories_sizes":[],"default_left":[0,0,0,0,0,0,0,0,0,0,0,0,0,0,0,0,0,0,0,0,0,0,0,0,0,0,0],"id":26,"left_children":[1,3,5,7,9,11,13,15,-1,-1,17,19,-1,21,-1,-1,-1,-1,-1,23,-1,-1,25,-1,-1,-1,-1],"loss_changes":[5.852642E0,1.2889638E0,2.7051034E0,1.2348472E0,3.9198732E-1,1.1936789E0,5.5084753E-1,2.559415E-1,0E0,0E0,5.718174E-1,7.375784E-1,0E0,2.0127058E-2,0E0,0E0,0E0,0E0,0E0,2.2708302E0,0E0,0E0,8.072078E-3,0E0,0E0,0E0,0E0],"parents":[2147483647,0,0,1,1,2,2,3,3,4,4,5,5,6,6,7,7,10,10,11,11,13,13,19,19,22,22],"right_children":[2,4,6,8,10,12,14,16,-1,-1,18,20,-1,22,-1,-1,-1,-1,-1,24,-1,-1,26,-1,-1,-1,-1],"split_conditions":[1.5E1,1E0,1E0,1.2E1,2E0,2E0,4.2E1,3.6E1,3.1917647E-3,1.2644744E-2,3E0,3E0,-4.180315E-3,2E0,-4.180315E-3,7.9182545E-3,1.2644744E-2,2.9378973E-2,1.2644744E-2,1E0,-9.214089E-3,-4.94275E-4,3.552E3,-2.4573365E-2,-9.214089E-3,3.1917647E-3,7.6715293E-4],"split_indices":[7,5,4,7,2,5,7,0,0,0,2,2,0,2,0,0,0,0,0,5,0,0,6,0,0,0,0],"split_type":[0,0,0,0,0,0,0,0,0,0,0,0,0,0,0,0,0,0,0,0,0,0,0,0,0,0,0],"sum_hessian":[5.411166E1,1.9013826E1,3.5097836E1,9.471054E0,9.542771E0,2.7229445E1,7.8683915E0,4.5023518E0,4.9687023E0,2.843938E0,6.698834E0,2.4908665E1,2.3207798E0,6.710843E0,1.1575483E0,1.3306923E0,3.1716595E0,5.619944E0,1.0788896E0,1.9892035E1,5.0166297E0,1.0770828E0,5.6337605E0,1.3979879E1,5.9121547E0,3.6650455E0,1.9687147E0],"tree_param":{"num_deleted":"0","num_feature":"8","num_nodes":"27","size_leaf_vector":"1"}},{"base_weights":[1.2752731E-1,2.4433987E-1,-5.97535E-1,3.9397982E-1,-1.7659757E-1,-2.8468361E-2,-3.667976E-1,4.720035E-1,-1.7659757E-1,-1.7659757E-1,1.8300977E-2,-1.7659757E-1,-1.9736145E-2,1.7468458E-1,5.8689183E-1,-5.2979267E-3,2.5921578E-3,8.2123897E-4,-1.7659757E-1,-1.1757139E-2,-5.2979267E-3,4.431089E-3,2.134766E-2,3.3460863E-2,1.44334445E-2,-2.2383442E-3,-5.2979267E-3],"categories":[],"categories_nodes":[],"categories_segments":[],"categories_sizes":[],"default_left":[0,0,0,0,0,0,0,0,0,0,0,0,0,0,0,0,0,0,0,0,0,0,0,0,0,0,0],"id":27,"left_children":[1,3,5,7,9,-1,11,13,15,17,-1,19,-1,21,23,-1,-1,-1,25,-1,-1,-1,-1,-1,-1,-1,-1],"loss_changes":[4.9305596E0,3.5754857E0,3.110156E-1,2.3659353E0,1.948488E0,0E0,3.1653494E-1,1.0951595E0,1.5707979E-1,1.0026765E-1,0E0,1.17504954E-1,0E0,1.096076E0,8.534069E-1,0E0,0E0,0E0,2.1404862E-2,0E0,0E0,0E0,0E0,0E0,0E0,0E0,0E0],"parents":[2147483647,0,0,1,1,2,2,3,3,4,4,6,6,7,7,8,8,9,9,11,11,13,13,14,14,18,18],"right_children":[2,4,6,8,10,-1,12,14,16,18,-1,20,-1,22,24,-1,-1,-1,26,-1,-1,-1,-1,-1,-1,-1,-1],"split_conditions":[6.758E3,2E0,2.8E1,3.9E1,3.4E1,-2.8468361E-2,1.1816E4,1E0,1E0,1.3E1,1.8300977E-2,1E0,-1.9736145E-2,3.8E1,9E0,-5.2979267E-3,2.5921578E-3,8.2123897E-4,1.41E3,-1.1757139E-2,-5.2979267E-3,4.431089E-3,2.134766E-2,3.3460863E-2,1.44334445E-2,-2.2383442E-3,-5.2979267E-3],"split_indices":[6,3,0,7,0,0,6,1,3,7,0,5,0,0,7,0,0,0,6,0,0,0,0,0,0,0,0],"split_type":[0,0,0,0,0,0,0,0,0,0,0,0,0,0,0,0,0,0,0,0,0,0,0,0,0,0,0],"sum_hessian":[5.5490704E1,4.836222E1,7.12848E0,3.694427E1,1.1417952E1,1.5916903E0,5.5367894E0,3.4062485E1,2.8817844E0,9.218668E0,2.1992831E0,4.155855E0,1.3809346E0,1.01962185E1,2.3866268E1,1.1600083E0,1.7217762E0,2.1596034E0,7.0590644E0,2.2075236E0,1.9483314E0,7.6548347E0,2.5413833E0,2.3885257E0,2.1477743E1,1.3166915E0,5.742373E0],"tree_param":{"num_deleted":"0","num_feature":"8","num_nodes":"27","size_leaf_vector":"1"}},{"base_weights":[-1.5119726E-2,4.090218E-1,-3.1106803E-1,1.5951456E-1,8.5944957E-1,-4.4397658E-1,4.8976883E-2,1.4693064E-3,4.8128945E-1,3.632039E-2,1.5284462E-2,-5.202756E-1,-5.924995E-3,1.4693064E-3,-1.9749984E-1,5.094821E-1,1.4693064E-3,-2.3985045E-2,-3.7626848E-1,-5.924995E-3,-2.2278444E-3,8.376884E-3,1.5284462E-2,-1.763655E-2,-1.0766632E-2],"categories":[],"categories_nodes":[],"categories_segments":[],"categories_sizes":[],"default_left":[0,0,0,0,0,0,0,0,0,0,0,0,0,0,0,0,0,0,0,0,0,0,0,0,0],"id":28,"left_children":[1,3,5,7,9,11,13,-1,15,-1,-1,17,-1,-1,19,21,-1,-1,23,-1,-1,-1,-1,-1,-1],"loss_changes":[7.24053E0,2.528924E0,2.2356393E0,1.7544519E0,1.21984E0,9.724703E-1,7.687668E-1,0E0,4.1914487E-1,0E0,0E0,7.3011255E-1,0E0,0E0,1.0745627E-1,1.6939378E-1,0E0,0E0,4.7697258E-1,0E0,0E0,0E0,0E0,0E0,0E0],"parents":[2147483647,0,0,1,1,2,2,3,3,4,4,5,5,6,6,8,8,11,11,14,14,15,15,18,18],"right_children":[2,4,6,8,10,12,14,-1,16,-1,-1,18,-1,-1,20,22,-1,-1,24,-1,-1,-1,-1,-1,-1],"split_conditions":[1.6E1,3.8E1,1E0,1E0,1.2E1,2E0,3.001E3,1.4693064E-3,1.5E1,3.632039E-2,1.5284462E-2,2.6E1,-5.924995E-3,1.4693064E-3,2.9E1,1E0,1.4693064E-3,-2.3985045E-2,1E0,-5.924995E-3,-2.2278444E-3,8.376884E-3,1.5284462E-2,-1.763655E-2,-1.0766632E-2],"split_indices":[7,0,4,1,7,5,6,0,7,0,0,0,0,0,0,5,0,0,1,0,0,0,0,0,0],"split_type":[0,0,0,0,0,0,0,0,0,0,0,0,0,0,0,0,0,0,0,0,0,0,0,0,0],"sum_hessian":[5.566883E1,2.2722197E1,3.2946636E1,1.5493796E1,7.2284E0,2.631907E1,6.6275654E0,6.0152407E0,9.478556E0,4.0586033E0,3.1697967E0,2.4638544E1,1.6805264E0,3.021229E0,3.6063366E0,7.9499297E0,1.528626E0,6.834608E0,1.7803936E1,2.0948558E0,1.5114808E0,2.9811432E0,4.9687867E0,5.0431185E0,1.2760818E1],"tree_param":{"num_deleted":"0","num_feature":"8","num_nodes":"25","size_leaf_vector":"1"}},{"base_weights":[-1.4786202E-2,-1.5952396E-1,5.83259E-1,2.1186751E-1,-4.376581E-1,2.1186751E-1,3.228125E-2,-1.12895295E-1,6.356025E-3,-3.0596912E-1,-3.0625207E-2,6.356025E-3,1.5245313E-2,-3.3868589E-3,4.9486108E-2,-4.9370396E-1,-1.12895295E-1,1.4845832E-3,-9.511378E-4,-1.990214E-2,-9.098989E-3,-3.3868589E-3,-9.098989E-3],"categories":[],"categories_nodes":[],"categories_segments":[],"categories_sizes":[],"default_left":[0,0,0,0,0,0,0,0,0,0,0,0,0,0,0,0,0,0,0,0,0,0,0],"id":29,"left_children":[1,3,5,7,9,11,-1,13,-1,15,-1,-1,-1,-1,17,19,21,-1,-1,-1,-1,-1,-1],"loss_changes":[4.846847E0,5.1753364E0,1.8344324E0,1.1139294E0,1.7679029E0,1.3163862E-1,0E0,5.053207E-1,0E0,1.0818624E0,0E0,0E0,0E0,0E0,1.9159749E-1,1.309371E0,2.5595218E-1,0E0,0E0,0E0,0E0,0E0,0E0],"parents":[2147483647,0,0,1,1,2,2,3,3,4,4,5,5,7,7,9,9,14,14,15,15,16,16],"right_children":[2,4,6,8,10,12,-1,14,-1,16,-1,-1,-1,-1,18,20,22,-1,-1,-1,-1,-1,-1],"split_conditions":[1E0,1.6E1,3.5E1,1E0,4.5E1,3E0,3.228125E-2,3.6E1,6.356025E-3,1E0,-3.0625207E-2,6.356025E-3,1.5245313E-2,-3.3868589E-3,1.2E1,2.8E1,6.56E3,1.4845832E-3,-9.511378E-4,-1.990214E-2,-9.098989E-3,-3.3868589E-3,-9.098989E-3],"split_indices":[4,7,0,5,7,4,0,0,0,5,0,0,0,0,7,0,6,0,0,0,0,0,0],"split_type":[0,0,0,0,0,0,0,0,0,0,0,0,0,0,0,0,0,0,0,0,0,0,0],"sum_hessian":[5.3919346E1,4.4003063E1,9.916281E0,1.7916039E1,2.6087027E1,6.3835616E0,3.5327191E0,9.741903E0,8.174135E0,2.2525234E1,3.5617926E0,5.372994E0,1.0105674E0,4.5619426E0,5.1799603E0,1.2595602E1,9.929632E0,2.243799E0,2.9361615E0,5.954852E0,6.6407495E0,8.775569E0,1.1540629E0],"tree_param":{"num_deleted":"0","num_feature":"8","num_nodes":"23","size_leaf_vector":"1"}},{"base_weights":[-3.4838703E-3,1.7618474E-1,-5.36738E-1,6.581688E-2,5.210825E-1,-9.1201204E-1,-1.857375E-1,2.934497E-1,-7.921445E-2,8.803491E-3,3.13015E-2,-1.6466243E-2,-3.477186E-2,-5.408298E-3,-1.6466243E-2,2.934497E-1,3.2135285E-3,-1.8027662E-1,1.0711762E-1,3.2135285E-3,8.803491E-3,-5.408298E-3,3.2135285E-3,3.2135285E-3,-5.408298E-3],"categories":[],"categories_nodes":[],"categories_segments":[],"categories_sizes":[],"default_left":[0,0,0,0,0,0,0,0,0,0,0,0,0,0,0,0,0,0,0,0,0,0,0,0,0],"id":30,"left_children":[1,3,5,7,9,11,13,15,17,-1,-1,-1,-1,-1,-1,19,-1,21,23,-1,-1,-1,-1,-1,-1],"loss_changes":[5.254703E0,1.527848E0,1.6510482E0,1.6224878E0,2.0398834E0,2.4248314E-1,6.3272786E-1,3.603431E-1,1.4989399E0,0E0,0E0,0E0,0E0,0E0,0E0,2.521305E-1,0E0,1.0150244E0,2.0929319E-1,0E0,0E0,0E0,0E0,0E0,0E0],"parents":[2147483647,0,0,1,1,2,2,3,3,4,4,5,5,6,6,7,7,8,8,15,15,17,17,18,18],"right_children":[2,4,6,8,10,12,14,16,18,-1,-1,-1,-1,-1,-1,20,-1,22,24,-1,-1,-1,-1,-1,-1],"split_conditions":[3E1,1E0,3E1,1.2E1,3.3E1,4.795E3,4.8E1,3E0,3E0,8.803491E-3,3.13015E-2,-1.6466243E-2,-3.477186E-2,-5.408298E-3,-1.6466243E-2,2.5E1,3.2135285E-3,1E0,6.615E3,3.2135285E-3,8.803491E-3,-5.408298E-3,3.2135285E-3,3.2135285E-3,-5.408298E-3],"split_indices":[7,4,0,7,0,6,7,2,2,0,0,0,0,0,0,0,0,5,6,0,0,0,0,0,0],"split_type":[0,0,0,0,0,0,0,0,0,0,0,0,0,0,0,0,0,0,0,0,0,0,0,0,0],"sum_hessian":[5.2858578E1,4.0038174E1,1.2820405E1,3.1234055E1,8.804119E0,5.42351E0,7.396895E0,7.9044356E0,2.3329618E1,5.120602E0,3.6835172E0,2.68808E0,2.73543E0,4.9870815E0,2.4098132E0,6.6004076E0,1.3040277E0,1.9534153E1,3.7954655E0,1.4986866E0,5.1017213E0,1.17935E1,7.740654E0,2.6663811E0,1.1290843E0],"tree_param":{"num_deleted":"0","num_feature":"8","num_nodes":"25","size_leaf_vector":"1"}},{"base_weights":[-2.98037E-2,2.7577373E-1,-3.9323765E-1,3.2710303E-2,1.8232642E-1,-5.0191164E-1,-1.7619587E-3,5.1280737E-1,2.7873255E-2,-6.991296E-1,-2.803218E-1,8.110209E-3,1.9090049E-2,-5.873196E-2,2.0940557E-1,-2.573846E-2,-1.4691771E-2,-8.409654E-3,-1.4691771E-2,-1.7619587E-3,2.260104E-3,8.110209E-3,2.8293605E-3],"categories":[],"categories_nodes":[],"categories_segments":[],"categories_sizes":[],"default_left":[0,0,0,0,0,0,0,0,0,0,0,0,0,0,0,0,0,0,0,0,0,0,0],"id":31,"left_children":[1,3,5,-1,7,9,-1,11,13,15,17,-1,-1,19,21,-1,-1,-1,-1,-1,-1,-1,-1],"loss_changes":[6.088827E0,2.072683E0,1.7982368E0,0E0,1.4134426E0,1.1914077E0,0E0,1.3463948E0,5.8901167E-1,2.3777151E-1,3.4326625E-1,0E0,0E0,1.9928928E-1,1.037983E-1,0E0,0E0,0E0,0E0,0E0,0E0,0E0,0E0],"parents":[2147483647,0,0,1,1,2,2,4,4,5,5,7,7,8,8,9,9,10,10,13,13,14,14],"right_children":[2,4,6,-1,8,10,-1,12,14,16,18,-1,-1,20,22,-1,-1,-1,-1,-1,-1,-1,-1],"split_conditions":[2.4E1,6.39E2,2E0,3.2710303E-2,1.2E1,3.2E1,-1.7619587E-3,3.6E1,1E0,1E0,4.8E1,8.110209E-3,1.9090049E-2,2.7E1,1E0,-2.573846E-2,-1.4691771E-2,-8.409654E-3,-1.4691771E-2,-1.7619587E-3,2.260104E-3,8.110209E-3,2.8293605E-3],"split_indices":[7,6,5,0,7,0,0,0,5,5,7,0,0,0,1,0,0,0,0,0,0,0,0],"split_type":[0,0,0,0,0,0,0,0,0,0,0,0,0,0,0,0,0,0,0,0,0,0,0],"sum_hessian":[5.284956E1,2.8841042E1,2.400852E1,1.8702532E0,2.6970787E1,2.242056E1,1.587959E0,7.8513126E0,1.9119476E1,1.2796962E1,9.623599E0,3.9649901E0,3.8863223E0,9.780255E0,9.33922E0,6.984466E0,5.812495E0,7.66851E0,1.9550892E0,3.6500928E0,6.1301622E0,3.3918114E0,5.9474087E0],"tree_param":{"num_deleted":"0","num_feature":"8","num_nodes":"23","size_leaf_vector":"1"}},{"base_weights":[-2.1461643E-2,7.392454E-2,-8.942924E-1,1.440467E-2,3.2696452E-2,-3.1492572E-2,-1.2305518E-2,1.6564297E-2,-3.876838E-2,-1.6506906E-1,2.1432029E-1,-1.2305518E-2,1.7610998E-4,1.5760126E-3,7.700622E-3],"categories":[],"categories_nodes":[],"categories_segments":[],"categories_sizes":[],"default_left":[0,0,0,0,0,0,0,0,0,0,0,0,0,0,0],"id":32,"left_children":[1,3,5,7,-1,-1,-1,-1,9,11,13,-1,-1,-1,-1],"loss_changes":[4.7931967E0,3.1352396E0,3.7118435E-1,1.9691551E0,0E0,0E0,0E0,0E0,1.573402E0,1.4822587E0,4.8938787E-1,0E0,0E0,0E0,0E0],"parents":[2147483647,0,0,1,1,2,2,3,3,8,8,9,9,10,10],"right_children":[2,4,6,8,-1,-1,-1,-1,10,12,14,-1,-1,-1,-1],"split_conditions":[7.763E3,3E0,1E0,6.39E2,3.2696452E-2,-3.1492572E-2,-1.2305518E-2,1.6564297E-2,3.6E1,1E0,3E0,-1.2305518E-2,1.7610998E-4,1.5760126E-3,7.700622E-3],"split_indices":[6,4,4,6,0,0,0,0,0,1,2,0,0,0,0],"split_type":[0,0,0,0,0,0,0,0,0,0,0,0,0,0,0],"sum_hessian":[5.577772E1,5.110778E1,4.669943E0,4.9237385E1,1.8703947E0,3.5673132E0,1.1026298E0,2.1218998E0,4.7115486E1,3.1662498E1,1.5452987E1,1.1790802E1,1.9871696E1,1.3031353E1,2.421633E0],"tree_param":{"num_deleted":"0","num_feature":"8","num_nodes":"15","size_leaf_vector":"1"}},{"base_weights":[-4.0882616E-3,3.2012492E-1,-2.4517623E-1,3.747435E-2,5.328381E-1,-6.2231714E-1,-6.914284E-2,1.1242304E-3,2.8515622E-1,8.836644E-1,2.8515622E-1,-2.801153E-2,-1.7731115E-1,3.747435E-2,-1.999512E-2,1.1242304E-3,8.554687E-3,1.753231E-2,3.2465592E-2,1.753231E-2,8.554687E-3,1.1242304E-3,-1.6665433E-2,-3.1448123E-1,3.747435E-2,-9.435444E-3,1.1242304E-3,1.1242304E-3,-5.6489483E-3],"categories":[],"categories_nodes":[],"categories_segments":[],"categories_sizes":[],"default_left":[0,0,0,0,0,0,0,0,0,0,0,0,0,0,0,0,0,0,0,0,0,0,0,0,0,0,0,0,0],"id":33,"left_children":[1,3,5,7,9,11,13,-1,15,17,19,-1,21,23,-1,-1,-1,-1,-1,-1,-1,-1,-1,25,27,-1,-1,-1,-1],"loss_changes":[4.1361923E0,1.4748781E0,1.9711899E0,5.053342E-1,1.5938442E0,1.1550274E0,1.5363761E0,0E0,2.0105606E-1,5.0194836E-1,4.152509E-1,0E0,1.1277461E0,6.184466E-1,0E0,0E0,0E0,0E0,0E0,0E0,0E0,0E0,0E0,7.0717347E-1,1.696751E-1,0E0,0E0,0E0,0E0],"parents":[2147483647,0,0,1,1,2,2,3,3,4,4,5,5,6,6,8,8,9,9,10,10,12,12,13,13,23,23,24,24],"right_children":[2,4,6,8,10,12,14,-1,16,18,20,-1,22,24,-1,-1,-1,-1,-1,-1,-1,-1,-1,26,28,-1,-1,-1,-1],"split_conditions":[1.6E1,3E1,1E0,1E0,1.2E1,1E0,4.5E1,1.1242304E-3,1E0,3.5E1,1E0,-2.801153E-2,3.804E3,2E0,-1.999512E-2,1.1242304E-3,8.554687E-3,1.753231E-2,3.2465592E-2,1.753231E-2,8.554687E-3,1.1242304E-3,-1.6665433E-2,3.5E1,6.758E3,-9.435444E-3,1.1242304E-3,1.1242304E-3,-5.6489483E-3],"split_indices":[7,0,1,1,7,5,7,0,5,0,1,0,6,2,0,0,0,0,0,0,0,0,0,0,6,0,0,0,0],"split_type":[0,0,0,0,0,0,0,0,0,0,0,0,0,0,0,0,0,0,0,0,0,0,0,0,0,0,0,0,0],"sum_hessian":[5.0912785E1,2.1573318E1,2.9339464E1,9.207823E0,1.2365497E1,8.529756E0,2.0809708E1,4.2216787E0,4.986144E0,5.9653754E0,6.4001207E0,4.3720937E0,4.157662E0,1.8206501E1,2.6032062E0,1.9784255E0,3.0077186E0,1.0438013E0,4.921574E0,1.5966488E0,4.803472E0,1.657683E0,2.4999788E0,4.003934E0,1.4202568E1,2.539504E0,1.46443E0,1.1846312E1,2.3562567E0],"tree_param":{"num_deleted":"0","num_feature":"8","num_nodes":"29","size_leaf_vector":"1"}},{"base_weights":[1.4668295E-1,3.7388228E-2,3.136374E-2,2.8223065E-1,-2.7170447E-1,5.555311E-3,4.3266135E-1,-1.1439826E-1,-2.2534726E-2,5.26309E-3,1.6242694E-2,1.6242694E-2,1.6815925E-1,-2.701497E-1,5.26309E-3,4.6251714E-3,1.578927E-4,3.10209E-4,1.06437355E-2,-1.2983337E-2,-3.973299E-3,1.578927E-4,-2.2777566E-3],"categories":[],"categories_nodes":[],"categories_segments":[],"categories_sizes":[],"default_left":[0,0,0,0,0,0,0,0,0,0,0,0,0,0,0,0,0,0,0,0,0,0,0],"id":34,"left_children":[1,3,-1,5,7,9,11,13,-1,15,-1,-1,17,19,21,-1,-1,-1,-1,-1,-1,-1,-1],"loss_changes":[5.0403433E0,3.6441665E0,0E0,1.1127827E0,1.5239668E0,9.280005E-1,1.1655836E0,8.038332E-1,0E0,4.980987E-2,0E0,0E0,7.402367E-1,4.8313737E-1,1.5275732E-2,0E0,0E0,0E0,0E0,0E0,0E0,0E0,0E0],"parents":[2147483647,0,0,1,1,3,3,4,4,5,5,6,6,7,7,9,9,12,12,13,13,14,14],"right_children":[2,4,-1,6,8,10,12,14,-1,16,-1,-1,18,20,22,-1,-1,-1,-1,-1,-1,-1,-1],"split_conditions":[2E0,2.4E1,3.136374E-2,1E0,4.8E1,4E1,1.2E1,1E0,-2.2534726E-2,2E0,1.6242694E-2,1.6242694E-2,2E0,1E0,2.7E1,4.6251714E-3,1.578927E-4,3.10209E-4,1.06437355E-2,-1.2983337E-2,-3.973299E-3,1.578927E-4,-2.2777566E-3],"split_indices":[5,7,0,1,7,0,7,4,0,2,0,0,4,1,7,0,0,0,0,0,0,0,0],"split_type":[0,0,0,0,0,0,0,0,0,0,0,0,0,0,0,0,0,0,0,0,0,0,0],"sum_hessian":[5.0708847E1,4.6139675E1,4.569174E0,2.5794174E1,2.03455E1,9.450164E0,1.634401E1,1.6251926E1,4.093575E0,8.058669E0,1.3914945E0,5.4016023E0,1.0942408E1,1.2854423E1,3.3975034E0,1.2475699E0,6.811099E0,9.805933E0,1.1364746E0,3.83151E0,9.022912E0,2.0758262E0,1.3216771E0],"tree_param":{"num_deleted":"0","num_feature":"8","num_nodes":"23","size_leaf_vector":"1"}},{"base_weights":[5.433439E-3,1.01885654E-1,-5.913173E-1,2.2176039E-1,-2.4471582E-1,-6.8103755E-1,-7.3414748E-3,2.1215126E-2,4.1707513E-1,-7.3414748E-3,1.4988664E-2,-2.8867112E-2,-1.38863E-2,-1.6275927E-1,6.574353E-3,5.38048E-1,6.574353E-3,-7.3414748E-3,6.574353E-3,1.1863605E-2,2.5485426E-2],"categories":[],"categories_nodes":[],"categories_segments":[],"categories_sizes":[],"default_left":[0,0,0,0,0,0,0,0,0,0,0,0,0,0,0,0,0,0,0,0,0],"id":35,"left_children":[1,3,5,7,9,11,-1,13,15,-1,-1,-1,-1,17,-1,19,-1,-1,-1,-1,-1],"loss_changes":[3.1787543E0,2.4076905E0,1.8917584E-1,1.4623884E0,1.6741698E0,2.2274804E-1,0E0,1.7218353E0,8.903315E-1,0E0,0E0,0E0,0E0,1.4025203E0,0E0,3.9848852E-1,0E0,0E0,0E0,0E0,0E0],"parents":[2147483647,0,0,1,1,2,2,3,3,4,4,5,5,7,7,8,8,13,13,15,15],"right_children":[2,4,6,8,10,12,-1,14,16,-1,-1,-1,-1,18,-1,20,-1,-1,-1,-1,-1],"split_conditions":[6.758E3,2E0,1E0,1E0,3.4E1,3.5E1,-7.3414748E-3,3E0,3E0,-7.3414748E-3,1.4988664E-2,-2.8867112E-2,-1.38863E-2,1E0,6.574353E-3,4.3E1,6.574353E-3,-7.3414748E-3,6.574353E-3,1.1863605E-2,2.5485426E-2],"split_indices":[6,3,4,5,0,0,0,2,2,0,0,0,0,4,0,0,0,0,0,0,0],"split_type":[0,0,0,0,0,0,0,0,0,0,0,0,0,0,0,0,0,0,0,0,0],"sum_hessian":[5.318033E1,4.64947E1,6.6856256E0,3.656082E1,9.93388E0,5.1580853E0,1.5275404E0,1.8585855E1,1.7974966E1,7.804036E0,2.129844E0,1.9278525E0,3.2302327E0,1.6395573E1,2.1902843E0,1.5536288E1,2.438678E0,1.4407031E1,1.9885414E0,1.2214111E1,3.3221774E0],"tree_param":{"num_deleted":"0","num_feature":"8","num_nodes":"21","size_leaf_vector":"1"}},{"base_weights":[-4.005273E-2,-1.647215E-1,8.457606E-1,-5.2049226E-1,2.984719E-3,1.0215586E-2,3.084795E-2,-2.5875378E-1,-2.9539304E-2,-1.4273793E-1,3.4051955E-1,-1.7600628E-2,-7.7626132E-3,9.889081E-2,-2.1566372E-1,2.9667243E-3,3.4051955E-1,-1.1413797E-3,2.9667243E-3,-7.7626132E-3,9.445088E-4,6.591155E-3,1.0215586E-2],"categories":[],"categories_nodes":[],"categories_segments":[],"categories_sizes":[],"default_left":[0,0,0,0,0,0,0,0,0,0,0,0,0,0,0,0,0,0,0,0,0,0,0],"id":36,"left_children":[1,3,5,7,9,-1,-1,11,-1,13,15,-1,-1,17,19,-1,21,-1,-1,-1,-1,-1,-1],"loss_changes":[6.039184E0,2.8458076E0,7.091594E-1,3.0933576E0,2.3472004E0,0E0,0E0,3.8265008E-1,0E0,6.3083225E-1,2.5716877E-1,0E0,0E0,4.963562E-2,5.534749E-1,0E0,9.882021E-2,0E0,0E0,0E0,0E0,0E0,0E0],"parents":[2147483647,0,0,1,1,2,2,3,3,4,4,7,7,9,9,10,10,13,13,14,14,16,16],"right_children":[2,4,6,8,10,-1,-1,12,-1,14,16,-1,-1,18,20,-1,22,-1,-1,-1,-1,-1,-1],"split_conditions":[2E0,2.7E1,2E0,1.987E3,1E0,1.0215586E-2,3.084795E-2,1E0,-2.9539304E-2,2E0,2.9E1,-1.7600628E-2,-7.7626132E-3,3.5E1,3E0,2.9667243E-3,2E0,-1.1413797E-3,2.9667243E-3,-7.7626132E-3,9.445088E-4,6.591155E-3,1.0215586E-2],"split_indices":[5,0,2,6,4,0,0,5,0,2,0,0,0,0,2,0,2,0,0,0,0,0,0],"split_type":[0,0,0,0,0,0,0,0,0,0,0,0,0,0,0,0,0,0,0,0,0,0,0],"sum_hessian":[5.2424744E1,4.6670425E1,5.754319E0,1.4277867E1,3.239256E1,1.3646533E0,4.389666E0,7.2937627E0,6.984104E0,2.5837458E1,6.555101E0,3.1807806E0,4.1129823E0,4.5269656E0,2.1310492E1,1.3075901E0,5.247511E0,2.1685147E0,2.3584507E0,1.445352E1,6.856972E0,1.0207745E0,4.226736E0],"tree_param":{"num_deleted":"0","num_feature":"8","num_nodes":"23","size_leaf_vector":"1"}},{"base_weights":[3.9054472E-2,1.6594231E-1,-7.0705205E-1,4.985277E-2,6.120352E-1,-4.2283967E-1,-2.7770305E-2,-2.7055487E-1,1.8389687E-1,3.30944E-1,2.9468698E-2,-1.9181956E-2,-8.116646E-3,-1.29987E-3,-8.116646E-3,3.30944E-1,8.106471E-2,9.92832E-3,1.8265197E-2,6.3580566E-4,9.92832E-3,9.241906E-3,-5.308303E-4],"categories":[],"categories_nodes":[],"categories_segments":[],"categories_sizes":[],"default_left":[0,0,0,0,0,0,0,0,0,0,0,0,0,0,0,0,0,0,0,0,0,0,0],"id":37,"left_children":[1,3,5,7,9,11,-1,13,15,17,-1,-1,-1,-1,-1,19,21,-1,-1,-1,-1,-1,-1],"loss_changes":[5.140608E0,2.3598423E0,9.9598885E-2,1.9989978E0,1.0844133E0,1.4388269E-1,0E0,2.1110058E-1,6.76049E-1,1.8889117E-1,0E0,0E0,0E0,0E0,0E0,2.3324776E-1,5.109407E-1,0E0,0E0,0E0,0E0,0E0,0E0],"parents":[2147483647,0,0,1,1,2,2,3,3,4,4,5,5,7,7,8,8,9,9,15,15,16,16],"right_children":[2,4,6,8,10,12,-1,14,16,18,-1,-1,-1,-1,-1,20,22,-1,-1,-1,-1,-1,-1],"split_conditions":[6.758E3,1E0,1.0961E4,2.6E1,3.3E1,3.5E1,-2.7770305E-2,1.053E3,2E0,1E0,2.9468698E-2,-1.9181956E-2,-8.116646E-3,-1.29987E-3,-8.116646E-3,3.5E1,1E0,9.92832E-3,1.8265197E-2,6.3580566E-4,9.92832E-3,9.241906E-3,-5.308303E-4],"split_indices":[6,4,6,0,0,0,0,6,2,1,0,0,0,0,0,0,1,0,0,0,0,0,0],"split_type":[0,0,0,0,0,0,0,0,0,0,0,0,0,0,0,0,0,0,0,0,0,0,0],"sum_hessian":[5.205989E1,4.515767E1,6.902224E0,3.6714878E1,8.442788E0,4.276656E0,2.625568E0,8.933825E0,2.7781055E1,4.869952E0,3.5728362E0,1.4951338E0,2.7815225E0,1.6695734E0,7.2642508E0,6.2328615E0,2.1548193E1,2.0057805E0,2.8641717E0,2.5725737E0,3.6602879E0,5.8901863E0,1.5658007E1],"tree_param":{"num_deleted":"0","num_feature":"8","num_nodes":"23","size_leaf_vector":"1"}},{"base_weights":[6.7190506E-2,1.3607764E-1,-3.0847779E-2,5.757962E-2,7.9822224E-1,-2.1702662E-1,1.9893949E-1,2.7542083E-2,1.2837028E-2,-3.632945E-1,1.2837028E-2,2.5920397E-1,-3.2695708E-1,-1.33827245E-2,-4.149466E-3,5.200843E-3,1.2837028E-2,-1.0162966E-3,-1.33827245E-2],"categories":[],"categories_nodes":[],"categories_segments":[],"categories_sizes":[],"default_left":[0,0,0,0,0,0,0,0,0,0,0,0,0,0,0,0,0,0,0],"id":38,"left_children":[1,3,-1,5,7,9,11,-1,-1,13,-1,15,17,-1,-1,-1,-1,-1,-1],"loss_changes":[4.0416837E0,2.5283961E0,0E0,1.8038616E0,4.4186115E-2,1.9144664E0,1.0502698E0,0E0,0E0,7.211263E-1,0E0,6.262764E-1,5.6031036E-1,0E0,0E0,0E0,0E0,0E0,0E0],"parents":[2147483647,0,0,1,1,3,3,4,4,5,5,6,6,9,9,11,11,12,12],"right_children":[2,4,-1,6,8,10,12,-1,-1,14,-1,16,18,-1,-1,-1,-1,-1,-1],"split_conditions":[1.0961E4,2E0,-3.0847779E-2,1E0,2.712E3,4.3E1,6.758E3,2.7542083E-2,1.2837028E-2,2E0,1.2837028E-2,1E0,1E0,-1.33827245E-2,-4.149466E-3,5.200843E-3,1.2837028E-2,-1.0162966E-3,-1.33827245E-2],"split_indices":[6,4,0,1,6,0,6,0,0,2,0,4,3,0,0,0,0,0,0],"split_type":[0,0,0,0,0,0,0,0,0,0,0,0,0,0,0,0,0,0,0],"sum_hessian":[5.0704693E1,4.852875E1,2.1759417E0,4.4357124E1,4.17163E0,1.48921995E1,2.9464924E1,2.8978221E0,1.2738078E0,1.2910173E1,1.9820256E0,2.6890554E1,2.57437E0,3.1899412E0,9.720232E0,2.3742937E1,3.1476169E0,1.2247475E0,1.3496225E0],"tree_param":{"num_deleted":"0","num_feature":"8","num_nodes":"19","size_leaf_vector":"1"}},{"base_weights":[-2.5334395E-2,-1.2212552E-1,7.3145056E-1,-2.3886735E-2,-2.1584453E-2,9.139876E-3,2.82423E-2,3.0466253E-1,-1.23701036E-1,9.139876E-3,2.7144223E-3,-4.2120097E-3,-3.7168425E-1,2.3162668E-3,-1.1150528E-2,-3.0128278E-3,-1.1150528E-2],"categories":[],"categories_nodes":[],"categories_segments":[],"categories_sizes":[],"default_left":[0,0,0,0,0,0,0,0,0,0,0,0,0,0,0,0,0],"id":39,"left_children":[1,3,5,7,-1,-1,-1,9,11,-1,-1,13,15,-1,-1,-1,-1],"loss_changes":[3.8720107E0,2.7199216E0,7.734134E-1,1.7319903E0,0E0,0E0,0E0,1.7293215E-1,1.2582102E0,0E0,0E0,1.0216922E0,2.2637355E-1,0E0,0E0,0E0,0E0],"parents":[2147483647,0,0,1,1,2,2,3,3,7,7,8,8,11,11,12,12],"right_children":[2,4,6,8,-1,-1,-1,10,12,-1,-1,14,16,-1,-1,-1,-1],"split_conditions":[2E0,7.763E3,2E0,1.2E1,-2.1584453E-2,9.139876E-3,2.82423E-2,3E0,2E0,9.139876E-3,2.7144223E-3,3.9E1,2.1E1,2.3162668E-3,-1.1150528E-2,-3.0128278E-3,-1.1150528E-2],"split_indices":[5,6,2,7,0,0,0,2,3,0,0,7,7,0,0,0,0],"split_type":[0,0,0,0,0,0,0,0,0,0,0,0,0,0,0,0,0],"sum_hessian":[5.064067E1,4.564181E1,4.998861E0,4.0088932E1,5.552876E0,1.1673758E0,3.8314848E0,6.9728694E0,3.3116066E1,5.9235344E0,1.049335E0,2.4877201E1,8.238864E0,2.2097143E1,2.7800574E0,3.9540877E0,4.284776E0],"tree_param":{"num_deleted":"0","num_feature":"8","num_nodes":"17","size_leaf_vector":"1"}},{"base_weights":[9.791503E-2,2.2931136E-1,-3.708104E-1,1.6736111E-1,3.0941347E-2,-1.6462746E-1,-2.158838E-2,1.7947333E-2,1.0698402E-1,-1.3263602E-2,-7.0749514E-2,5.9137497E-2,1.05784265E-2,-2.1224853E-3,-7.693044E-3,4.1124956E-3,-2.1224853E-3],"categories":[],"categories_nodes":[],"categories_segments":[],"categories_sizes":[],"default_left":[0,0,0,0,0,0,0,0,0,0,0,0,0,0,0,0,0],"id":40,"left_children":[1,3,5,7,-1,9,-1,-1,11,-1,13,15,-1,-1,-1,-1,-1],"loss_changes":[3.3205943E0,1.896919E0,7.36238E-1,9.7291446E-1,0E0,4.977305E-1,0E0,0E0,7.1714586E-1,0E0,9.307287E-2,4.6765628E-1,0E0,0E0,0E0,0E0,0E0],"parents":[2147483647,0,0,1,1,2,2,3,3,5,5,8,8,10,10,11,11],"right_children":[2,4,6,8,-1,10,-1,-1,12,-1,14,16,-1,-1,-1,-1,-1],"split_conditions":[3.3E1,3E0,4.8E1,8E0,3.0941347E-2,3E1,-2.158838E-2,1.7947333E-2,6.3E1,-1.3263602E-2,3E0,2.4E1,1.05784265E-2,-2.1224853E-3,-7.693044E-3,4.1124956E-3,-2.1224853E-3],"split_indices":[7,4,7,7,0,0,0,0,0,0,2,7,0,0,0,0,0],"split_type":[0,0,0,0,0,0,0,0,0,0,0,0,0,0,0,0,0],"sum_hessian":[5.153493E1,4.065033E1,1.0884603E1,3.885769E1,1.7926383E0,7.7659802E0,3.1186225E0,3.680832E0,3.5176857E1,3.0072532E0,4.758727E0,3.4112434E1,1.0644249E0,3.4340408E0,1.324686E0,2.3656668E1,1.0455766E1],"tree_param":{"num_deleted":"0","num_feature":"8","num_nodes":"17","size_leaf_vector":"1"}},{"base_weights":[-3.556459E-2,-1.3340902E-1,7.280466E-1,1.0420825E-1,-3.7594163E-1,3.1531297E-2,3.1727126E-1,-1.3586669E-1,2.973188E-1,-2.5714964E-1,-2.4356466E-2,8.919563E-3,2.382891E-2,-4.0760003E-3,8.919563E-3,2.973188E-1,-4.0760003E-3,-5.345159E-1,-1.3586669E-1,8.919563E-3,4.684258E-3,-1.6035477E-2,-4.0760003E-3,-4.0760003E-3,-1.6035477E-2],"categories":[],"categories_nodes":[],"categories_segments":[],"categories_sizes":[],"default_left":[0,0,0,0,0,0,0,0,0,0,0,0,0,0,0,0,0,0,0,0,0,0,0,0,0],"id":41,"left_children":[1,3,5,7,9,-1,11,13,15,17,-1,-1,-1,-1,-1,19,-1,21,23,-1,-1,-1,-1,-1,-1],"loss_changes":[4.009301E0,2.762717E0,4.7615123E-1,1.7769766E0,1.0136244E0,0E0,4.436817E-1,8.37018E-1,5.6830335E-1,1.1471198E0,0E0,0E0,0E0,0E0,0E0,9.637976E-2,0E0,7.980847E-2,7.458561E-1,0E0,0E0,0E0,0E0,0E0,0E0],"parents":[2147483647,0,0,1,1,2,2,3,3,4,4,6,6,7,7,8,8,9,9,15,15,17,17,18,18],"right_children":[2,4,6,8,10,-1,12,14,16,18,-1,-1,-1,-1,-1,20,-1,22,24,-1,-1,-1,-1,-1,-1],"split_conditions":[2E0,2.1E1,1E0,1E0,4.8E1,3.1531297E-2,3.5E1,3.9E1,6.187E3,1E0,-2.4356466E-2,8.919563E-3,2.382891E-2,-4.0760003E-3,8.919563E-3,1.2E1,-4.0760003E-3,3E0,6.999E3,8.919563E-3,4.684258E-3,-1.6035477E-2,-4.0760003E-3,-4.0760003E-3,-1.6035477E-2],"split_indices":[5,7,1,1,7,0,0,0,6,1,0,0,0,0,0,7,0,2,6,0,0,0,0,0,0],"split_type":[0,0,0,0,0,0,0,0,0,0,0,0,0,0,0,0,0,0,0,0,0,0,0,0,0],"sum_hessian":[5.136121E1,4.625914E1,5.10207E0,2.3654434E1,2.2604706E1,1.9836355E0,3.118434E0,9.676602E0,1.3977832E1,1.9013483E1,3.5912225E0,1.9575152E0,1.1609188E0,7.790068E0,1.8865345E0,1.284303E1,1.1348015E0,4.9310937E0,1.4082389E1,4.572088E0,8.270943E0,3.8550842E0,1.0760098E0,1.171371E1,2.368679E0],"tree_param":{"num_deleted":"0","num_feature":"8","num_nodes":"25","size_leaf_vector":"1"}},{"base_weights":[2.6588889E-2,1.5066542E-1,-4.157119E-1,2.5499183E-1,-1.3252324E-1,-5.132232E-1,-3.975697E-3,1.9501525E-1,2.788484E-2,-3.975697E-3,2.0552797E-2,-3.228732E-1,-2.166176E-2,-5.336128E-2,2.4370326E-1,-5.2246594E-1,-9.686196E-3,2.8551295E-3,-3.975697E-3,1.46180475E-2,5.6603127E-3,-1.5673978E-2,-1.2680087E-2],"categories":[],"categories_nodes":[],"categories_segments":[],"categories_sizes":[],"default_left":[0,0,0,0,0,0,0,0,0,0,0,0,0,0,0,0,0,0,0,0,0,0,0],"id":42,"left_children":[1,3,5,7,9,11,-1,13,-1,-1,-1,15,-1,17,19,21,-1,-1,-1,-1,-1,-1,-1],"loss_changes":[2.9998384E0,1.5527308E0,5.11534E-1,1.1606004E0,1.8788037E0,2.0052385E-1,0E0,3.9667523E-1,0E0,0E0,0E0,9.649718E-2,0E0,4.0365934E-1,2.6599622E-1,1.2784374E-1,0E0,0E0,0E0,0E0,0E0,0E0,0E0],"parents":[2147483647,0,0,1,1,2,2,3,3,4,4,5,5,7,7,11,11,13,13,14,14,15,15],"right_children":[2,4,6,8,10,12,-1,14,-1,-1,-1,16,-1,18,20,22,-1,-1,-1,-1,-1,-1,-1],"split_conditions":[3.3E1,2E0,1E0,3E0,3.4E1,4.8E1,-3.975697E-3,2.6E1,2.788484E-2,-3.975697E-3,2.0552797E-2,3.5E1,-2.166176E-2,1.5E1,9E0,1E0,-9.686196E-3,2.8551295E-3,-3.975697E-3,1.46180475E-2,5.6603127E-3,-1.5673978E-2,-1.2680087E-2],"split_indices":[7,3,4,4,0,7,0,0,0,0,0,0,0,7,7,5,0,0,0,0,0,0,0],"split_type":[0,0,0,0,0,0,0,0,0,0,0,0,0,0,0,0,0,0,0,0,0,0,0],"sum_hessian":[5.2521336E1,4.1530376E1,1.0990957E1,3.2169876E1,9.3605E0,9.28563E0,1.7053276E0,3.0726786E1,1.4430912E0,7.523739E0,1.8367617E0,6.0342646E0,3.2513652E0,5.0202994E0,2.5706486E1,3.9065065E0,2.127758E0,2.1009498E0,2.9193494E0,3.2897406E0,2.2416746E1,2.186724E0,1.7197827E0],"tree_param":{"num_deleted":"0","num_feature":"8","num_nodes":"23","size_leaf_vector":"1"}},{"base_weights":[3.419904E-2,1.2793636E-1,-5.491233E-1,3.16078E-1,-1.4439797E-1,-2.1701794E-2,-6.3178036E-3,1.5267889E-1,6.582151E-1,-2.1059346E-1,8.584002E-2,2.5752005E-3,3.5941032E-1,3.1552233E-2,4.05447E-1,-6.3178036E-3,-6.2376723E-2,2.5752005E-3,-1.8713017E-3,2.5752005E-3,1.216341E-2,2.1857822E-2,1.216341E-2,-1.8713017E-3,-6.3178036E-3],"categories":[],"categories_nodes":[],"categories_segments":[],"categories_sizes":[],"default_left":[0,0,0,0,0,0,0,0,0,0,0,0,0,0,0,0,0,0,0,0,0,0,0,0,0],"id":43,"left_children":[1,3,5,7,9,-1,-1,11,13,15,17,-1,19,-1,21,-1,23,-1,-1,-1,-1,-1,-1,-1,-1],"loss_changes":[2.9650426E0,2.4242306E0,6.2042904E-1,1.451925E0,9.532771E-1,0E0,0E0,8.2185197E-1,9.172716E-1,2.6802003E-1,1.1224261E-1,0E0,9.691316E-1,0E0,4.2622757E-1,0E0,2.9393476E-1,0E0,0E0,0E0,0E0,0E0,0E0,0E0,0E0],"parents":[2147483647,0,0,1,1,2,2,3,3,4,4,7,7,8,8,9,9,10,10,12,12,14,14,16,16],"right_children":[2,4,6,8,10,-1,-1,12,14,16,18,-1,20,-1,22,-1,24,-1,-1,-1,-1,-1,-1,-1,-1],"split_conditions":[6.758E3,2.1E1,1E0,3.8E1,1E0,-2.1701794E-2,-6.3178036E-3,1E0,1.2E1,1E0,3.552E3,2.5752005E-3,1E0,3.1552233E-2,1E0,-6.3178036E-3,3.3E1,2.5752005E-3,-1.8713017E-3,2.5752005E-3,1.216341E-2,2.1857822E-2,1.216341E-2,-1.8713017E-3,-6.3178036E-3],"split_indices":[6,7,4,0,4,0,0,1,7,1,6,0,5,0,1,0,7,0,0,0,0,0,0,0,0],"split_type":[0,0,0,0,0,0,0,0,0,0,0,0,0,0,0,0,0,0,0,0,0,0,0,0,0],"sum_hessian":[5.1941452E1,4.5422874E1,6.5185785E0,2.676896E1,1.8653912E1,4.8047066E0,1.713872E0,1.9095509E1,7.6734533E0,1.4725099E1,3.9288125E0,7.816149E0,1.1279359E1,2.916295E0,4.7571588E0,4.061203E0,1.0663895E1,2.8126097E0,1.1162031E0,4.7935433E0,6.485816E0,1.3008385E0,3.45632E0,6.926325E0,3.7375703E0],"tree_param":{"num_deleted":"0","num_feature":"8","num_nodes":"25","size_leaf_vector":"1"}},{"base_weights":[6.1852564E-3,1.6305174E-1,-5.390746E-1,-1.8801144E-1,3.3637068E-1,-2.81176E-1,-2.528375E-2,1.4703757E-2,-1.8801144E-1,3.866045E-1,-5.640343E-3,-1.6859515E-2,-1.8801144E-1,-5.640343E-3,9.925714E-2,2.916536E-1,7.725846E-1,-9.95013E-3,-5.640343E-3,-2.7000703E-4,3.992502E-3,1.2430761E-2,2.9788958E-3,2.623611E-2,7.728313E-3],"categories":[],"categories_nodes":[],"categories_segments":[],"categories_sizes":[],"default_left":[0,0,0,0,0,0,0,0,0,0,0,0,0,0,0,0,0,0,0,0,0,0,0,0,0],"id":44,"left_children":[1,3,5,7,9,11,-1,-1,13,15,-1,-1,17,-1,19,21,23,-1,-1,-1,-1,-1,-1,-1,-1],"loss_changes":[4.6545105E0,3.2673616E0,7.1553206E-1,1.0311258E0,1.294816E0,7.221417E-1,0E0,0E0,3.4915018E-1,8.665962E-1,0E0,0E0,1.3087153E-2,0E0,1.8259779E-2,1.0083699E0,5.1706076E-2,0E0,0E0,0E0,0E0,0E0,0E0,0E0,0E0],"parents":[2147483647,0,0,1,1,2,2,3,3,4,4,5,5,8,8,9,9,12,12,14,14,15,15,16,16],"right_children":[2,4,6,8,10,12,-1,-1,14,16,-1,-1,18,-1,20,22,24,-1,-1,-1,-1,-1,-1,-1,-1],"split_conditions":[3.3E1,2E0,4.8E1,6.83E2,7.763E3,2.7E1,-2.528375E-2,1.4703757E-2,3.5E1,3E0,-5.640343E-3,-1.6859515E-2,1E0,-5.640343E-3,1E0,2E0,3.031E3,-9.95013E-3,-5.640343E-3,-2.7000703E-4,3.992502E-3,1.2430761E-2,2.9788958E-3,2.623611E-2,7.728313E-3],"split_indices":[7,2,7,6,6,0,0,0,0,2,0,0,3,0,1,3,6,0,0,0,0,0,0,0,0],"split_type":[0,0,0,0,0,0,0,0,0,0,0,0,0,0,0,0,0,0,0,0,0,0,0,0,0],"sum_hessian":[5.239008E1,4.1229637E1,1.116044E1,1.1291309E1,2.993833E1,7.07692E0,4.0835204E0,1.3190805E0,9.972229E0,2.8793983E1,1.1443465E0,2.5460098E0,4.5309105E0,6.312953E0,3.6592758E0,2.451815E1,4.2758327E0,1.3468971E0,3.1840131E0,1.0459026E0,2.613373E0,1.8769808E1,5.748343E0,2.9863853E0,1.2894473E0],"tree_param":{"num_deleted":"0","num_feature":"8","num_nodes":"25","size_leaf_vector":"1"}},{"base_weights":[-9.0280855E-3,8.967022E-2,-2.3129823E-2,-2.2461101E-1,2.43951E-1,-3.4066194E-1,2.3067608E-2,3.0283064E-1,-1.0219858E-2,-2.345048E-1,-1.0219858E-2,1.0048473E-1,4.9767277E-1,-8.627501E-3,-1.9318482E-3,-5.674696E-4,8.972363E-3,2.0915613E-2,8.972363E-3],"categories":[],"categories_nodes":[],"categories_segments":[],"categories_sizes":[],"default_left":[0,0,0,0,0,0,0,0,0,0,0,0,0,0,0,0,0,0,0],"id":45,"left_children":[1,3,-1,5,7,9,-1,11,-1,13,-1,15,17,-1,-1,-1,-1,-1,-1],"loss_changes":[4.0740504E0,2.38425E0,0E0,3.6197019E0,1.4572921E0,1.99821E-2,0E0,1.1639733E0,0E0,1.7106766E-1,0E0,1.0045333E0,1.3626399E0,0E0,0E0,0E0,0E0,0E0,0E0],"parents":[2147483647,0,0,1,1,3,3,4,4,5,5,7,7,9,9,11,11,12,12],"right_children":[2,4,-1,6,8,10,-1,12,-1,14,-1,16,18,-1,-1,-1,-1,-1,-1],"split_conditions":[7.763E3,1E0,-2.3129823E-2,2E0,4.5E1,2.7E1,2.3067608E-2,1E0,-1.0219858E-2,2E0,-1.0219858E-2,3E0,3E0,-8.627501E-3,-1.9318482E-3,-5.674696E-4,8.972363E-3,2.0915613E-2,8.972363E-3],"split_indices":[6,1,0,5,7,7,0,5,0,3,0,2,2,0,0,0,0,0,0],"split_type":[0,0,0,0,0,0,0,0,0,0,0,0,0,0,0,0,0,0,0],"sum_hessian":[5.2253483E1,4.704235E1,5.2111306E0,1.53392725E1,3.170308E1,1.3126233E1,2.2130394E0,2.9791792E1,1.9112875E0,1.1071033E1,2.0552E0,1.5358022E1,1.443377E1,6.293834E0,4.7771983E0,1.3574192E1,1.7838304E0,1.2002623E1,2.4311476E0],"tree_param":{"num_deleted":"0","num_feature":"8","num_nodes":"19","size_leaf_vector":"1"}},{"base_weights":[-3.825658E-2,6.421529E-2,-3.8771534E-1,1.8338363E-1,-5.402386E-1,-6.460317E-1,3.1192908E-1,2.1979313E-1,-5.3528245E-3,-2.4589779E-2,-2.1310277E-1,-3.6563417E-1,-2.4469065E-2,2.6942141E-2,-5.011539E-3,1.1951355E-1,4.5256796E-1,-1.5491431E-2,-5.3528245E-3,-1.7719043E-2,-5.011539E-3,6.204846E-4,7.3480476E-3,3.1723846E-2,8.581222E-3],"categories":[],"categories_nodes":[],"categories_segments":[],"categories_sizes":[],"default_left":[0,0,0,0,0,0,0,0,0,0,0,0,0,0,0,0,0,0,0,0,0,0,0,0,0],"id":46,"left_children":[1,3,5,7,9,11,13,15,-1,-1,17,19,-1,-1,-1,21,23,-1,-1,-1,-1,-1,-1,-1,-1],"loss_changes":[1.8788286E0,3.0445092E0,2.3487554E0,7.3819447E-1,4.64041E-1,1.2991953E-1,1.4766957E0,7.318201E-1,0E0,0E0,2.304708E-1,3.54589E-1,0E0,0E0,0E0,6.3821423E-1,2.0548315E0,0E0,0E0,0E0,0E0,0E0,0E0,0E0,0E0],"parents":[2147483647,0,0,1,1,2,2,3,3,4,4,5,5,6,6,7,7,10,10,11,11,15,15,16,16],"right_children":[2,4,6,8,10,12,14,16,-1,-1,18,20,-1,-1,-1,22,24,-1,-1,-1,-1,-1,-1,-1,-1],"split_conditions":[2E0,6.758E3,3.4E1,4.7E1,3.5E1,2.4E1,1E0,3.9E1,-5.3528245E-3,-2.4589779E-2,3E0,2.8E1,-2.4469065E-2,2.6942141E-2,-5.011539E-3,1E0,1.2E1,-1.5491431E-2,-5.3528245E-3,-1.7719043E-2,-5.011539E-3,6.204846E-4,7.3480476E-3,3.1723846E-2,8.581222E-3],"split_indices":[3,6,0,7,0,7,1,0,0,0,2,0,0,0,0,1,7,0,0,0,0,0,0,0,0],"split_type":[0,0,0,0,0,0,0,0,0,0,0,0,0,0,0,0,0,0,0,0,0,0,0,0,0],"sum_hessian":[5.0771774E1,3.9890823E1,1.0880951E1,3.3903374E1,5.9874516E0,8.002843E0,2.878108E0,3.2668484E1,1.2348891E0,2.4172297E0,3.570222E0,4.2056556E0,3.7971873E0,1.1104932E0,1.767615E0,2.3890059E1,8.778425E0,1.2835557E0,2.2866662E0,2.2481751E0,1.9574807E0,7.356288E0,1.653377E1,3.0461433E0,5.7322817E0],"tree_param":{"num_deleted":"0","num_feature":"8","num_nodes":"25","size_leaf_vector":"1"}},{"base_weights":[5.29602E-3,9.653914E-2,-2.0143678E-2,-1.4888626E-1,2.127575E-1,-2.8745842E-1,6.8590426E-1,2.6463462E-2,1.5889557E-1,-2.8745842E-1,5.9766877E-3,5.9766877E-3,2.7691996E-2,7.534745E-2,4.5446613E-1,-8.623753E-3,-2.507213E-3,-2.0823113E-3,7.2533214E-3,7.947204E-3,1.5615164E-2],"categories":[],"categories_nodes":[],"categories_segments":[],"categories_sizes":[],"default_left":[0,0,0,0,0,0,0,0,0,0,0,0,0,0,0,0,0,0,0,0,0],"id":47,"left_children":[1,3,-1,5,7,9,11,-1,13,15,-1,-1,-1,17,19,-1,-1,-1,-1,-1,-1],"loss_changes":[3.3908896E0,1.4104521E0,0E0,3.193485E0,1.0573884E0,1.1782758E0,3.931924E-1,0E0,7.5504905E-1,1.9475698E-2,0E0,0E0,0E0,6.4600486E-1,4.3380332E-1,0E0,0E0,0E0,0E0,0E0,0E0],"parents":[2147483647,0,0,1,1,3,3,4,4,5,5,6,6,8,8,9,9,13,13,14,14],"right_children":[2,4,-1,6,8,10,12,-1,14,16,-1,-1,-1,18,20,-1,-1,-1,-1,-1,-1],"split_conditions":[7.763E3,1E0,-2.0143678E-2,4E1,6.39E2,2E0,1E0,2.6463462E-2,1E0,2E0,5.9766877E-3,5.9766877E-3,2.7691996E-2,1E0,3.5E1,-8.623753E-3,-2.507213E-3,-2.0823113E-3,7.2533214E-3,7.947204E-3,1.5615164E-2],"split_indices":[6,1,0,0,6,5,5,0,4,4,0,0,0,5,0,0,0,0,0,0,0],"split_type":[0,0,0,0,0,0,0,0,0,0,0,0,0,0,0,0,0,0,0,0,0],"sum_hessian":[5.286435E1,4.733919E1,5.5251594E0,1.5122659E1,3.2216534E1,1.233801E1,2.784649E0,1.2541013E0,3.0962433E1,1.098442E1,1.35359E0,1.2475562E0,1.5370928E0,2.5117468E1,5.8449636E0,9.528068E0,1.4563519E0,1.3745136E1,1.1372333E1,3.3537614E0,2.4912019E0],"tree_param":{"num_deleted":"0","num_feature":"8","num_nodes":"21","size_leaf_vector":"1"}},{"base_weights":[7.785105E-2,1.645074E-1,-5.497301E-1,8.7599844E-2,6.2362146E-1,-2.5183088E-1,-2.358087E-2,-1.9261137E-1,2.4663366E-1,2.9049544E-2,1.066832E-2,-5.778341E-3,-1.13185225E-2,-1.9261137E-1,1.066832E-2,-1.2740745E-1,2.925288E-1,2.4449895E-3,-5.778341E-3,-5.778341E-3,1.066832E-2,1.066832E-2,-2.142511E-3],"categories":[],"categories_nodes":[],"categories_segments":[],"categories_sizes":[],"default_left":[0,0,0,0,0,0,0,0,0,0,0,0,0,0,0,0,0,0,0,0,0,0,0],"id":48,"left_children":[1,3,5,7,9,11,-1,13,15,-1,-1,-1,-1,17,-1,19,21,-1,-1,-1,-1,-1,-1],"loss_changes":[2.963231E0,1.6114433E0,2.694192E-1,2.1508284E0,4.3273807E-1,3.9040267E-2,0E0,6.094022E-1,5.224198E-1,0E0,0E0,0E0,0E0,2.1102118E-1,0E0,1.5178368E0,6.7751694E-1,0E0,0E0,0E0,0E0,0E0,0E0],"parents":[2147483647,0,0,1,1,2,2,3,3,4,4,5,5,7,7,8,8,13,13,15,15,16,16],"right_children":[2,4,6,8,10,12,-1,14,16,-1,-1,-1,-1,18,-1,20,22,-1,-1,-1,-1,-1,-1],"split_conditions":[7.763E3,2E0,1.1816E4,1E0,1E0,3E0,-2.358087E-2,3E0,1E0,2.9049544E-2,1.066832E-2,-5.778341E-3,-1.13185225E-2,1.126E3,1.066832E-2,3E0,2E0,2.4449895E-3,-5.778341E-3,-5.778341E-3,1.066832E-2,1.066832E-2,-2.142511E-3],"split_indices":[6,5,6,1,1,2,0,4,3,0,0,0,0,6,0,2,3,0,0,0,0,0,0],"split_type":[0,0,0,0,0,0,0,0,0,0,0,0,0,0,0,0,0,0,0,0,0,0,0],"sum_hessian":[5.1824394E1,4.618504E1,5.6393547E0,4.0578426E1,5.606611E0,3.4082913E0,2.2310636E0,1.3317291E1,2.7261135E1,1.7536465E0,3.8529642E0,1.7224165E0,1.6858748E0,1.2218654E1,1.0986379E0,2.7852833E0,2.4475853E1,1.2336655E0,1.0984988E1,1.5982711E0,1.1870121E0,2.051101E1,3.9648428E0],"tree_param":{"num_deleted":"0","num_feature":"8","num_nodes":"23","size_leaf_vector":"1"}},{"base_weights":[-6.895176E-2,1.7866863E-1,-2.4818578E-1,2.595425E-2,1.0064774E-1,-1.1036117E-1,-6.5575385E-1,2.5776815E-1,-2.3432467E-2,-3.4758575E-2,-1.9772653E-2,-3.890195E-3,-2.1599395E-2,3.5150354E-3,4.8289472E-1,-3.4758575E-2,3.5150354E-3,-3.079441E-1,-3.4758575E-2,1.4486841E-2,3.5150354E-3,-1.0427572E-3,-1.8227778E-4,-1.0427572E-3,-1.0407705E-2,-1.0427572E-3,-1.0407705E-2],"categories":[],"categories_nodes":[],"categories_segments":[],"categories_sizes":[],"default_left":[0,0,0,0,0,0,0,0,0,0,0,0,0,0,0,0,0,0,0,0,0,0,0,0,0,0,0],"id":49,"left_children":[1,3,5,-1,7,9,11,13,15,17,-1,-1,-1,-1,19,21,-1,23,25,-1,-1,-1,-1,-1,-1,-1,-1],"loss_changes":[2.4181402E0,1.1469173E0,1.694034E0,0E0,4.3143415E-1,1.4059092E0,1.6830015E-1,1.2467875E0,3.5359493E-1,3.651231E-1,0E0,0E0,0E0,0E0,4.4348955E-1,4.8369914E-4,0E0,9.881711E-2,3.394691E-1,0E0,0E0,0E0,0E0,0E0,0E0,0E0,0E0],"parents":[2147483647,0,0,1,1,2,2,4,4,5,5,6,6,7,7,8,8,9,9,14,14,15,15,17,17,18,18],"right_children":[2,4,6,-1,8,10,12,14,16,18,-1,-1,-1,-1,20,22,-1,24,26,-1,-1,-1,-1,-1,-1,-1,-1],"split_conditions":[1.6E1,4.33E2,2E0,2.595425E-2,1.2E1,4.8E1,1.567E3,1E0,2E0,2E0,-1.9772653E-2,-3.890195E-3,-2.1599395E-2,3.5150354E-3,3E0,3E0,3.5150354E-3,1E0,7.408E3,1.4486841E-2,3.5150354E-3,-1.0427572E-3,-1.8227778E-4,-1.0427572E-3,-1.0407705E-2,-1.0427572E-3,-1.0407705E-2],"split_indices":[7,6,3,0,7,7,6,1,5,2,0,0,0,0,2,2,0,1,6,0,0,0,0,0,0,0,0],"split_type":[0,0,0,0,0,0,0,0,0,0,0,0,0,0,0,0,0,0,0,0,0,0,0,0,0,0,0],"sum_hessian":[5.248558E1,2.2039757E1,3.0445826E1,1.2196838E0,2.0820072E1,2.3701593E1,6.744233E0,8.711471E0,1.2108602E1,2.0729416E1,2.9721763E0,1.0622524E0,5.6819806E0,3.5295587E0,5.1819115E0,1.0634186E1,1.4744164E0,3.9086115E0,1.6820805E1,4.1642694E0,1.0176421E0,9.5777025E0,1.0564833E0,1.2599304E0,2.6486812E0,1.5004226E1,1.8165792E0],"tree_param":{"num_deleted":"0","num_feature":"8","num_nodes":"27","size_leaf_vector":"1"}},{"base_weights":[1.5195894E-2,5.9918296E-1,-1.1060113E-1,2.4429092E-1,2.8169172E-2,-4.9459293E-1,1.0145771E-2,1.3466554E-2,7.3287273E-3,-6.899198E-1,-2.4222358E-1,-9.4815694E-2,2.4429092E-1,-7.2667073E-3,-2.9147897E-2,-1.9061396E-2,-7.2667073E-3,2.4429092E-1,-2.1492064E-1,2.4429092E-1,-2.3688033E-1,-7.2667073E-3,7.3287273E-3,-7.2667073E-3,-3.6395902E-3,7.3287273E-3,2.7153564E-3,-4.2859485E-4,-7.2667073E-3],"categories":[],"categories_nodes":[],"categories_segments":[],"categories_sizes":[],"default_left":[0,0,0,0,0,0,0,0,0,0,0,0,0,0,0,0,0,0,0,0,0,0,0,0,0,0,0,0,0],"id":50,"left_children":[1,3,5,7,-1,9,11,-1,-1,13,15,17,19,-1,-1,-1,-1,21,23,25,27,-1,-1,-1,-1,-1,-1,-1,-1],"loss_changes":[3.82274E0,1.895987E0,1.9948169E0,3.581938E-2,0E0,4.1925812E-1,1.2364032E0,0E0,0E0,7.618444E-1,3.7757498E-1,1.42294E0,6.4634645E-1,0E0,0E0,0E0,0E0,1.065843E0,2.0684302E-1,9.407163E-3,4.6808407E-2,0E0,0E0,0E0,0E0,0E0,0E0,0E0,0E0],"parents":[2147483647,0,0,1,1,2,2,3,3,5,5,6,6,9,9,10,10,11,11,12,12,17,17,18,18,19,19,20,20],"right_children":[2,4,6,8,-1,10,12,-1,-1,14,16,18,20,-1,-1,-1,-1,22,24,26,28,-1,-1,-1,-1,-1,-1,-1,-1],"split_conditions":[1.2E1,1E0,2.6E1,8E0,2.8169172E-2,1E0,3E0,1.3466554E-2,7.3287273E-3,1.987E3,2E0,2E0,7.763E3,-7.2667073E-3,-2.9147897E-2,-1.9061396E-2,-7.2667073E-3,3.5E1,1E0,3.499E3,1.0722E4,-7.2667073E-3,7.3287273E-3,-7.2667073E-3,-3.6395902E-3,7.3287273E-3,2.7153564E-3,-4.2859485E-4,-7.2667073E-3],"split_indices":[7,1,0,7,0,1,2,0,0,6,2,2,6,0,0,0,0,0,3,6,6,0,0,0,0,0,0,0,0],"split_type":[0,0,0,0,0,0,0,0,0,0,0,0,0,0,0,0,0,0,0,0,0,0,0,0,0,0,0,0,0],"sum_hessian":[5.013359E1,8.218372E0,4.1915215E1,2.759987E0,5.4583855E0,9.286561E0,3.2628654E1,1.2814211E0,1.4785659E0,4.653214E0,4.6333466E0,2.6303654E1,6.3250027E0,1.9809285E0,2.6722853E0,1.8222955E0,2.8110514E0,5.383798E0,2.0919855E1,4.2755604E0,2.0494423E0,2.6528056E0,2.7309928E0,2.6381366E0,1.828172E1,2.3541596E0,1.9214009E0,1.0318947E0,1.0175476E0],"tree_param":{"num_deleted":"0","num_feature":"8","num_nodes":"29","size_leaf_vector":"1"}},{"base_weights":[5.599823E-2,1.273094E-1,-1.8476496E-2,6.5353906E-1,6.1483037E-2,1.07253315E-2,3.322198E-2,1.1077338E-1,-2.442869E-1,3.297336E-2,3.5751104E-1,-7.3286067E-3,-2.0027026E-3,-2.0027026E-3,4.268542E-3,1.07253315E-2,5.8572656E-3],"categories":[],"categories_nodes":[],"categories_segments":[],"categories_sizes":[],"default_left":[0,0,0,0,0,0,0,0,0,0,0,0,0,0,0,0,0],"id":51,"left_children":[1,3,-1,5,7,-1,-1,9,11,13,15,-1,-1,-1,-1,-1,-1],"loss_changes":[2.6245725E0,1.6527139E0,0E0,1.7984974E0,1.0291749E0,0E0,0E0,9.991413E-1,8.6131394E-2,8.295688E-1,5.4662585E-2,0E0,0E0,0E0,0E0,0E0,0E0],"parents":[2147483647,0,0,1,1,3,3,4,4,7,7,8,8,9,9,10,10],"right_children":[2,4,-1,6,8,-1,-1,10,12,14,16,-1,-1,-1,-1,-1,-1],"split_conditions":[7.763E3,9E0,-1.8476496E-2,2.7E1,4.5E1,1.07253315E-2,3.322198E-2,4.2E1,2.5E1,2E0,1.6E1,-7.3286067E-3,-2.0027026E-3,-2.0027026E-3,4.268542E-3,1.07253315E-2,5.8572656E-3],"split_indices":[6,7,0,0,7,0,0,0,0,2,7,0,0,0,0,0,0],"split_type":[0,0,0,0,0,0,0,0,0,0,0,0,0,0,0,0,0],"sum_hessian":[5.21418E1,4.7871414E1,4.270388E0,4.329807E0,4.3541607E1,1.0736485E0,3.2561584E0,4.0670277E1,2.8713307E0,3.3785946E1,6.8843274E0,1.2783206E0,1.5930103E0,7.7824187E0,2.6003529E1,2.891306E0,3.9930217E0],"tree_param":{"num_deleted":"0","num_feature":"8","num_nodes":"17","size_leaf_vector":"1"}},{"base_weights":[1.15222454E-1,2.8170097E-1,-4.7188568E-1,1.6374275E-1,3.213168E-2,-2.599702E-1,-2.2257159E-2,2.8469077E-1,-9.5092356E-2,-4.7900704E-1,-2.8527707E-3,3.433623E-1,-2.8527707E-3,1.5956344E-2,-9.5092356E-2,-8.611491E-3,-1.5028132E-2,3.724049E-3,1.4233581E-2,7.9613365E-4,-2.8527707E-3],"categories":[],"categories_nodes":[],"categories_segments":[],"categories_sizes":[],"default_left":[0,0,0,0,0,0,0,0,0,0,0,0,0,0,0,0,0,0,0,0,0],"id":52,"left_children":[1,3,5,7,-1,9,-1,11,13,15,-1,17,-1,-1,19,-1,-1,-1,-1,-1,-1],"loss_changes":[5.0638757E0,3.5425751E0,4.662466E-1,1.5339847E0,0E0,4.8405766E-1,0E0,1.0065138E0,1.2275139E0,2.0267725E-2,0E0,9.619596E-1,0E0,0E0,2.4673343E-2,0E0,0E0,0E0,0E0,0E0,0E0],"parents":[2147483647,0,0,1,1,2,2,3,3,5,5,7,7,8,8,9,9,11,11,14,14],"right_children":[2,4,6,8,-1,10,-1,12,14,16,-1,18,-1,-1,20,-1,-1,-1,-1,-1,-1],"split_conditions":[3.3E1,2E0,4.8E1,2E0,3.213168E-2,3.2E1,-2.2257159E-2,6.758E3,1.3E1,2.864E3,-2.8527707E-3,1E0,-2.8527707E-3,1.5956344E-2,1.41E3,-8.611491E-3,-1.5028132E-2,3.724049E-3,1.4233581E-2,7.9613365E-4,-2.8527707E-3],"split_indices":[7,4,7,3,0,0,0,6,7,6,0,1,0,0,6,0,0,0,0,0,0],"split_type":[0,0,0,0,0,0,0,0,0,0,0,0,0,0,0,0,0,0,0,0,0],"sum_hessian":[4.9449154E1,3.893037E1,1.0518783E1,3.4919563E1,4.0108075E0,6.9931984E0,3.5255847E0,2.6382215E1,8.537347E0,3.8198006E0,3.1733978E0,2.4826948E1,1.5552682E0,2.1457171E0,6.3916297E0,1.0654491E0,2.7543516E0,7.748536E0,1.7078411E1,1.2790456E0,5.112584E0],"tree_param":{"num_deleted":"0","num_feature":"8","num_nodes":"21","size_leaf_vector":"1"}},{"base_weights":[-3.6034517E-2,2.3135215E-2,-3.0288717E-2,3.9228916E-1,-6.812448E-2,4.86247E-3,3.2693636E-2,-1.4801855E-1,4.86247E-3,-2.534027E-1,7.031895E-3,-1.1638605E-2,-3.6955622E-3,2.1095684E-4,-3.6955622E-3],"categories":[],"categories_nodes":[],"categories_segments":[],"categories_sizes":[],"default_left":[0,0,0,0,0,0,0,0,0,0,0,0,0,0,0],"id":53,"left_children":[1,3,-1,5,7,-1,-1,9,-1,11,13,-1,-1,-1,-1],"loss_changes":[3.087267E0,1.7487915E0,0E0,3.5999062E0,1.4363548E0,0E0,0E0,1.2177857E0,0E0,9.016421E-1,3.1986248E-1,0E0,0E0,0E0,0E0],"parents":[2147483647,0,0,1,1,3,3,4,4,7,7,9,9,10,10],"right_children":[2,4,-1,6,8,-1,-1,10,-1,12,14,-1,-1,-1,-1],"split_conditions":[1.0961E4,1.2E1,-3.0288717E-2,3.6E1,2E0,4.86247E-3,3.2693636E-2,1E0,4.86247E-3,1E0,2.7E1,-1.1638605E-2,-3.6955622E-3,2.1095684E-4,-3.6955622E-3],"split_indices":[6,7,0,0,5,0,0,4,0,5,7,0,0,0,0],"split_type":[0,0,0,0,0,0,0,0,0,0,0,0,0,0,0],"sum_hessian":[5.2186386E1,5.0116783E1,2.069602E0,9.279944E0,4.0836838E1,5.4335775E0,3.8463666E0,3.7266205E1,3.5706353E0,3.0518494E1,6.74771E0,1.9702087E1,1.0816405E1,4.5375504E0,2.2101598E0],"tree_param":{"num_deleted":"0","num_feature":"8","num_nodes":"15","size_leaf_vector":"1"}},{"base_weights":[3.5786584E-2,-1.2126762E-1,6.6860545E-1,-2.9569083E-1,1.0452272E-1,7.520957E-1,8.210068E-3,-2.3127967E-2,-9.558406E-2,2.3439771E-1,-2.8675217E-3,8.210068E-3,8.4966516E-1,-2.5861776E-1,-2.8675217E-3,1.03328094E-1,8.210068E-3,1.2355276E-2,3.153301E-2,-2.8675217E-3,-1.2997744E-2,4.4781948E-3,-2.8675217E-3],"categories":[],"categories_nodes":[],"categories_segments":[],"categories_sizes":[],"default_left":[0,0,0,0,0,0,0,0,0,0,0,0,0,0,0,0,0,0,0,0,0,0,0],"id":54,"left_children":[1,3,5,7,9,11,-1,-1,13,15,-1,-1,17,19,-1,21,-1,-1,-1,-1,-1,-1,-1],"loss_changes":[5.399303E0,1.7526195E0,3.384409E-1,2.8632755E0,9.896216E-1,3.7764597E-1,0E0,0E0,3.6450547E-1,2.6188594E-1,0E0,0E0,2.4478817E-1,8.014308E-1,0E0,1.4666876E-1,0E0,0E0,0E0,0E0,0E0,0E0,0E0],"parents":[2147483647,0,0,1,1,2,2,3,3,4,4,5,5,8,8,9,9,12,12,13,13,15,15],"right_children":[2,4,6,8,10,12,-1,-1,14,16,-1,-1,18,20,-1,22,-1,-1,-1,-1,-1,-1,-1],"split_conditions":[1E0,1E0,3E0,2.7E1,3E0,2E0,8.210068E-3,-2.3127967E-2,3E0,2E0,-2.8675217E-3,8.210068E-3,2.9E1,2E0,-2.8675217E-3,2E0,8.210068E-3,1.2355276E-2,3.153301E-2,-2.8675217E-3,-1.2997744E-2,4.4781948E-3,-2.8675217E-3],"split_indices":[4,5,2,0,2,2,0,0,2,5,0,0,0,2,0,3,0,0,0,0,0,0,0],"split_type":[0,0,0,0,0,0,0,0,0,0,0,0,0,0,0,0,0,0,0,0,0,0,0],"sum_hessian":[5.2510323E1,4.2717087E1,9.793239E0,2.392524E1,1.8791847E1,8.160684E0,1.6325554E0,7.4861374E0,1.6439102E1,1.5450645E1,3.341201E0,1.4766371E0,6.6840463E0,1.3057261E1,3.38184E0,1.1481091E1,3.9695551E0,3.0655549E0,3.6184916E0,3.8087568E0,9.248505E0,9.835324E0,1.645766E0],"tree_param":{"num_deleted":"0","num_feature":"8","num_nodes":"23","size_leaf_vector":"1"}},{"base_weights":[7.358603E-2,1.9638072E-1,-4.5500788E-1,5.037466E-2,4.5395204E-1,-2.1516792E-2,-2.3929313E-1,-1.2931359E-1,2.0931537E-1,2.8453141E-2,2.5216335E-1,-3.8794077E-3,-1.3607205E-2,6.14954E-3,-3.8794077E-3,-3.8794077E-3,2.5216335E-1,2.5216335E-1,1.800902E-2,-1.8474607E-3,3.8362746E-3,7.5649004E-3,-3.8794077E-3,1.3895634E-2,7.5649004E-3],"categories":[],"categories_nodes":[],"categories_segments":[],"categories_sizes":[],"default_left":[0,0,0,0,0,0,0,0,0,0,0,0,0,0,0,0,0,0,0,0,0,0,0,0,0],"id":55,"left_children":[1,3,5,7,9,-1,11,13,15,-1,17,-1,-1,19,-1,-1,21,23,-1,-1,-1,-1,-1,-1,-1],"loss_changes":[3.4314134E0,1.5747142E0,3.9445448E-1,1.0035826E0,1.9011579E0,0E0,2.2904593E-1,1.5350893E-1,6.141604E-1,0E0,5.824138E-1,0E0,0E0,2.3098105E-1,0E0,0E0,2.7377272E-1,6.6539824E-2,0E0,0E0,0E0,0E0,0E0,0E0,0E0],"parents":[2147483647,0,0,1,1,2,2,3,3,4,4,6,6,7,7,8,8,10,10,13,13,16,16,17,17],"right_children":[2,4,6,8,10,-1,12,14,16,-1,18,-1,-1,20,-1,-1,22,24,-1,-1,-1,-1,-1,-1,-1],"split_conditions":[3.3E1,3.6E1,3E1,1E0,1.2E1,-2.1516792E-2,4.8E1,2.4E1,1E0,2.8453141E-2,3E0,-3.8794077E-3,-1.3607205E-2,2E0,-3.8794077E-3,-3.8794077E-3,6.331E3,1E0,1.800902E-2,-1.8474607E-3,3.8362746E-3,7.5649004E-3,-3.8794077E-3,1.3895634E-2,7.5649004E-3],"split_indices":[7,0,0,1,7,0,7,7,3,0,2,0,0,2,0,0,6,1,0,0,0,0,0,0,0],"split_type":[0,0,0,0,0,0,0,0,0,0,0,0,0,0,0,0,0,0,0,0,0,0,0,0,0],"sum_hessian":[5.0488743E1,4.1481007E1,9.007735E0,2.7237066E1,1.424394E1,3.0162985E0,5.9914365E0,1.138849E1,1.5848577E1,4.3330564E0,9.910884E0,3.8497324E0,2.1417038E0,8.276759E0,3.1117308E0,1.134251E0,1.4714326E1,7.9201813E0,1.9907032E0,1.5504258E0,6.726333E0,1.3656149E1,1.058177E0,1.922131E0,5.99805E0],"tree_param":{"num_deleted":"0","num_feature":"8","num_nodes":"25","size_leaf_vector":"1"}},{"base_weights":[-1.5486673E-1,-6.116994E-2,-7.496987E-1,-1.0820207E-1,2.8546065E-2,-1.2163029E-2,-2.5808776E-2,1.2650002E-2,-1.5133423E-1,-4.054343E-1,-2.208135E-2,-1.2163029E-2,4.054988E-3,-3.9147628E-3,4.054988E-3],"categories":[],"categories_nodes":[],"categories_segments":[],"categories_sizes":[],"default_left":[0,0,0,0,0,0,0,0,0,0,0,0,0,0,0],"id":56,"left_children":[1,3,5,7,-1,-1,-1,-1,9,11,13,-1,-1,-1,-1],"loss_changes":[2.934345E0,2.355094E0,1.901617E-1,1.6277862E0,0E0,0E0,0E0,0E0,1.4924006E0,1.3490937E0,1.0118042E0,0E0,0E0,0E0,0E0],"parents":[2147483647,0,0,1,1,2,2,3,3,8,8,9,9,10,10],"right_children":[2,4,6,8,-1,-1,-1,-1,10,12,14,-1,-1,-1,-1],"split_conditions":[6.758E3,6.3E1,1E0,4.33E2,2.8546065E-2,-1.2163029E-2,-2.5808776E-2,1.2650002E-2,1E0,2E0,1E0,-1.2163029E-2,4.054988E-3,-3.9147628E-3,4.054988E-3],"split_indices":[6,0,1,6,0,0,0,0,1,5,4,0,0,0,0],"split_type":[0,0,0,0,0,0,0,0,0,0,0,0,0,0,0],"sum_hessian":[5.2472054E1,4.628428E1,6.187774E0,4.5083656E1,1.2006222E0,1.3567309E0,4.8310432E0,1.1773868E0,4.390627E1,1.3902937E1,3.0003332E1,1.2504991E1,1.3979458E0,2.445808E1,5.545252E0],"tree_param":{"num_deleted":"0","num_feature":"8","num_nodes":"15","size_leaf_vector":"1"}},{"base_weights":[-6.246205E-2,1.8363254E-2,-2.4015883E-2,-2.1448293E-1,2.4285817E-1,-3.4694934E-1,4.2562856E-4,3.874804E-1,4.2562856E-4,1.4187619E-2,-3.910831E-1,1.4187619E-2,5.420822E-1,-5.653432E-3,4.2562856E-4,-1.1732493E-2,-5.653432E-3,4.2562856E-4,1.9500343E-2,1.9452298E-2,2.7173283E-3],"categories":[],"categories_nodes":[],"categories_segments":[],"categories_sizes":[],"default_left":[0,0,0,0,0,0,0,0,0,0,0,0,0,0,0,0,0,0,0,0,0],"id":57,"left_children":[1,3,-1,5,7,9,-1,11,-1,13,15,17,19,-1,-1,-1,-1,-1,-1,-1,-1],"loss_changes":[3.031511E0,2.4857795E0,0E0,1.4547564E0,1.5048438E0,1.9864106E0,0E0,1.2124956E0,0E0,2.1832654E-1,2.9483843E-1,1.1701632E0,6.2721014E-1,0E0,0E0,0E0,0E0,0E0,0E0,0E0,0E0],"parents":[2147483647,0,0,1,1,3,3,4,4,5,5,7,7,9,9,10,10,11,11,12,12],"right_children":[2,4,-1,6,8,10,-1,12,-1,14,16,18,20,-1,-1,-1,-1,-1,-1,-1,-1],"split_conditions":[4.5E1,1E0,-2.4015883E-2,3E0,3E0,1.2E1,4.2562856E-4,2E0,4.2562856E-4,3.6E1,1E0,3.5E1,2E0,-5.653432E-3,4.2562856E-4,-1.1732493E-2,-5.653432E-3,4.2562856E-4,1.9500343E-2,1.9452298E-2,2.7173283E-3],"split_indices":[7,5,0,2,2,7,0,2,0,0,4,0,3,0,0,0,0,0,0,0,0],"split_type":[0,0,0,0,0,0,0,0,0,0,0,0,0,0,0,0,0,0,0,0,0],"sum_hessian":[4.9571365E1,4.555751E1,4.0138555E0,2.2384697E1,2.3172815E1,1.9531746E1,2.8529503E0,1.8871517E1,4.301298E0,3.2530067E0,1.627874E1,5.5832753E0,1.3288242E1,1.3080002E0,1.9450065E0,1.5020346E1,1.258394E0,3.6882827E0,1.8949928E0,1.0402403E1,2.8858395E0],"tree_param":{"num_deleted":"0","num_feature":"8","num_nodes":"21","size_leaf_vector":"1"}},{"base_weights":[-1.1092184E-2,7.231533E-2,-6.6059726E-1,-1.9650894E-1,2.145553E-1,-8.824228E-3,-2.430778E-2,-2.9414096E-1,1.6029617E-2,4.9247923E-1,3.416606E-2,-6.7407236E-2,-2.9414096E-1,2.6332265E-1,2.0398237E-2,1.6113617E-1,-8.824228E-3,2.6318428E-4,-5.4232227E-3,-5.4232227E-3,-8.824228E-3,1.4148958E-2,7.899679E-3,6.689502E-3,-8.824228E-3],"categories":[],"categories_nodes":[],"categories_segments":[],"categories_sizes":[],"default_left":[0,0,0,0,0,0,0,0,0,0,0,0,0,0,0,0,0,0,0,0,0,0,0,0,0],"id":58,"left_children":[1,3,5,7,9,-1,-1,11,-1,13,15,17,19,21,-1,23,-1,-1,-1,-1,-1,-1,-1,-1,-1],"loss_changes":[2.780137E0,1.7857428E0,3.820927E-1,1.5373628E0,1.502162E0,0E0,0E0,4.0394664E-1,0E0,4.1928792E-1,1.3357015E0,1.0877524E-1,6.855571E-2,1.9585112E-1,0E0,6.2665296E-1,0E0,0E0,0E0,0E0,0E0,0E0,0E0,0E0,0E0],"parents":[2147483647,0,0,1,1,2,2,3,3,4,4,7,7,9,9,10,10,11,11,12,12,13,13,15,15],"right_children":[2,4,6,8,10,-1,-1,12,-1,14,16,18,20,22,-1,24,-1,-1,-1,-1,-1,-1,-1,-1,-1],"split_conditions":[7.763E3,1E0,1E0,2E0,1.5E1,-8.824228E-3,-2.430778E-2,2.4E1,1.6029617E-2,1E0,2E0,2E0,1.987E3,2E0,2.0398237E-2,4.7E1,-8.824228E-3,2.6318428E-4,-5.4232227E-3,-5.4232227E-3,-8.824228E-3,1.4148958E-2,7.899679E-3,6.689502E-3,-8.824228E-3],"split_indices":[6,1,1,5,7,0,0,7,0,5,3,3,6,2,0,7,0,0,0,0,0,0,0,0,0],"split_type":[0,0,0,0,0,0,0,0,0,0,0,0,0,0,0,0,0,0,0,0,0,0,0,0,0],"sum_hessian":[4.9437218E1,4.459865E1,4.8385653E0,1.5300386E1,2.9298265E1,1.1359506E0,3.7026148E0,1.37080345E1,1.5923524E0,1.0850662E1,1.8447603E1,8.54061E0,5.167424E0,5.450183E0,5.4004793E0,1.5974317E1,2.4732854E0,6.3499956E0,2.1906142E0,1.2479042E0,3.9195201E0,1.6171839E0,3.832999E0,1.4823796E1,1.1505204E0],"tree_param":{"num_deleted":"0","num_feature":"8","num_nodes":"25","size_leaf_vector":"1"}},{"base_weights":[4.671883E-2,1.887402E-1,-3.5027367E-1,2.3575519E-1,-2.4230022E-3,-2.448905E-2,-1.3071549E-1,3.4018865E-1,7.749423E-2,-8.076674E-2,-1.3517535E-2,2.6380804E-1,6.1601585E-1,2.3248268E-3,1.0996335E-2,-7.577894E-3,-8.076674E-2,2.3248268E-3,9.938462E-3,2.6654087E-2,1.3197359E-2,-5.000448E-3,-2.4230022E-3],"categories":[],"categories_nodes":[],"categories_segments":[],"categories_sizes":[],"default_left":[0,0,0,0,0,0,0,0,0,0,0,0,0,0,0,0,0,0,0,0,0,0,0],"id":59,"left_children":[1,3,5,7,-1,-1,9,11,13,15,-1,17,19,-1,-1,-1,21,-1,-1,-1,-1,-1,-1],"loss_changes":[2.9539323E0,8.4916127E-1,1.3099855E0,1.0570741E0,0E0,0E0,5.301192E-1,4.400835E-1,2.2263429E-1,7.3841944E-2,0E0,5.8111453E-1,8.425307E-2,0E0,0E0,0E0,4.0794596E-2,0E0,0E0,0E0,0E0,0E0,0E0],"parents":[2147483647,0,0,1,1,2,2,3,3,6,6,7,7,8,8,9,9,11,11,12,12,16,16],"right_children":[2,4,6,8,-1,-1,10,12,14,16,-1,18,20,-1,-1,-1,22,-1,-1,-1,-1,-1,-1],"split_conditions":[2.7E1,6.758E3,2.6E1,2E0,-2.4230022E-3,-2.448905E-2,4.8E1,4.7E1,3.4E1,3.2E1,-1.3517535E-2,1E0,1E0,2.3248268E-3,1.0996335E-2,-7.577894E-3,1E0,2.3248268E-3,9.938462E-3,2.6654087E-2,1.3197359E-2,-5.000448E-3,-2.4230022E-3],"split_indices":[7,6,0,3,0,0,7,0,0,0,0,3,3,0,0,0,3,0,0,0,0,0,0],"split_type":[0,0,0,0,0,0,0,0,0,0,0,0,0,0,0,0,0,0,0,0,0,0,0],"sum_hessian":[5.021939E1,3.7373756E1,1.2845633E1,3.5361553E1,2.0122035E0,3.2433848E0,9.602247E0,2.7602482E1,7.7590714E0,6.4850183E0,3.1172292E0,2.3148691E1,4.45379E0,6.022513E0,1.7365584E0,1.7218952E0,4.763123E0,2.0181544E0,2.1130537E1,1.2211903E0,3.2326E0,1.294262E0,3.468861E0],"tree_param":{"num_deleted":"0","num_feature":"8","num_nodes":"23","size_leaf_vector":"1"}},{"base_weights":[4.4490878E-2,1.1500711E-1,-4.790332E-1,2.1044579E-1,-5.4603913E-3,-2.0011687E-1,-2.1393402E-2,1.2299574E-1,7.9429275E-1,-5.4603913E-3,-1.2831537E-2,5.9206206E-2,4.810173E-1,9.503515E-3,3.2312546E-2,8.103352E-3,4.264911E-4,8.103352E-3,2.6770089E-2],"categories":[],"categories_nodes":[],"categories_segments":[],"categories_sizes":[],"default_left":[0,0,0,0,0,0,0,0,0,0,0,0,0,0,0,0,0,0,0],"id":60,"left_children":[1,3,5,7,-1,9,-1,11,13,-1,-1,15,17,-1,-1,-1,-1,-1,-1],"loss_changes":[1.9761832E0,1.8743777E0,2.732396E-1,1.8993835E0,0E0,1.378492E-1,0E0,7.75468E-1,3.2212162E-1,0E0,0E0,7.233673E-1,8.2781243E-1,0E0,0E0,0E0,0E0,0E0,0E0],"parents":[2147483647,0,0,1,1,2,2,3,3,5,5,7,7,8,8,11,11,12,12],"right_children":[2,4,6,8,-1,10,-1,12,14,-1,-1,16,18,-1,-1,-1,-1,-1,-1],"split_conditions":[7.763E3,3.3E1,1.1816E4,3E0,-5.4603913E-3,3E0,-2.1393402E-2,2E0,3.5E1,-5.4603913E-3,-1.2831537E-2,1.2E1,3.1E1,9.503515E-3,3.2312546E-2,8.103352E-3,4.264911E-4,8.103352E-3,2.6770089E-2],"split_indices":[6,7,6,2,0,2,0,4,0,0,0,7,0,0,0,0,0,0,0],"split_type":[0,0,0,0,0,0,0,0,0,0,0,0,0,0,0,0,0,0,0],"sum_hessian":[5.103819E1,4.566733E1,5.3708544E0,3.8114338E1,7.552996E0,3.2971137E0,2.0737405E0,3.420212E1,3.9122145E0,1.4416592E0,1.8554544E0,3.0018948E1,4.183175E0,2.2437422E0,1.6684723E0,6.4440336E0,2.3574913E1,2.261085E0,1.9220903E0],"tree_param":{"num_deleted":"0","num_feature":"8","num_nodes":"19","size_leaf_vector":"1"}},{"base_weights":[6.536926E-2,-1.515001E-1,2.7825087E-1,-3.2671717E-1,6.337538E-2,3.862028E-1,6.337538E-2,-4.7574335E-1,1.9012615E-3,1.9012615E-3,-3.2233857E-3,5.371088E-1,6.337538E-2,1.0541231E-1,1.9012615E-3,-2.0618398E-1,-5.701754E-1,6.373202E-1,1.9012615E-3,6.337538E-2,1.0812147E-2,8.560007E-3,2.5318153E-3,-1.4721513E-2,-6.1855195E-3,-9.477838E-3,-1.9979319E-2,1.0510434E-2,2.3516912E-2,1.9012615E-3,3.7699693E-3],"categories":[],"categories_nodes":[],"categories_segments":[],"categories_sizes":[],"default_left":[0,0,0,0,0,0,0,0,0,0,0,0,0,0,0,0,0,0,0,0,0,0,0,0,0,0,0,0,0,0,0],"id":61,"left_children":[1,3,5,7,9,11,13,15,-1,-1,-1,17,19,21,-1,23,25,27,-1,29,-1,-1,-1,-1,-1,-1,-1,-1,-1,-1,-1],"loss_changes":[2.5138512E0,2.3214173E0,1.0731463E0,2.5337713E0,5.936575E-2,1.5168097E0,3.608361E-3,5.6893253E-1,0E0,0E0,0E0,1.4075322E0,1.8166786E-1,8.028764E-2,0E0,1.7936435E-1,1.8317986E-1,7.9928255E-1,0E0,7.876903E-3,0E0,0E0,0E0,0E0,0E0,0E0,0E0,0E0,0E0,0E0,0E0],"parents":[2147483647,0,0,1,1,2,2,3,3,4,4,5,5,6,6,7,7,11,11,12,12,13,13,15,15,16,16,17,17,19,19],"right_children":[2,4,6,8,10,12,14,16,-1,-1,-1,18,20,22,-1,24,26,28,-1,30,-1,-1,-1,-1,-1,-1,-1,-1,-1,-1,-1],"split_conditions":[1E0,3E0,3E0,1E0,7.763E3,2E0,7.408E3,2E0,1.9012615E-3,1.9012615E-3,-3.2233857E-3,6.56E3,2E0,1E0,1.9012615E-3,1E0,1E0,2E0,1.9012615E-3,1E0,1.0812147E-2,8.560007E-3,